{
    "layer_1_weights": [
        [
            -0.04249834343019172,
            0.43783453231369257,
            0.27198267886087246,
            0.160087160661509,
            -0.22492658367509233,
            -0.36926510484016967,
            -0.40404368030620685,
            0.41050654211679233,
            0.07551888218512312,
            0.17655660825919245,
            -0.3556191620675526,
            0.46722667971345905,
            0.21411729173362146,
            -0.172896229009305,
            -0.2008502525721639,
            -0.19938863590033243
        ],
        [
            -0.09376545996646238,
            -0.013765648394041645,
            -0.02138792037859201,
            -0.22068977557914302,
            0.034164174055817766,
            -0.3706283774687383,
            -0.16109182579757744,
            -0.08107368014320189,
            -0.08015639089458902,
            0.17064813689100644,
            -0.18442377127193996,
            -0.014078690904779938,
            0.023507902741546936,
            -0.330236868379309,
            0.03166813291986077,
            -0.2113492920236048
        ],
        [
            -0.3120850764753326,
            0.43094379424554263,
            0.5281502885750369,
            0.3428528664735877,
            -0.09346727234195633,
            -0.4240918635871354,
            0.23656982308634106,
            -0.011060652726845756,
            -0.4267950315243165,
            -0.010958947712459213,
            -0.34205392620568087,
            0.39889381352224446,
            -0.13174735664558104,
            0.06809230742792972,
            -0.08781556254318834,
            0.0011140963710749932
        ],
        [
            0.00581344757994818,
            -0.24624324134306272,
            0.4862845410839523,
            0.34403251371927146,
            0.31651722120845777,
            0.3971319556953961,
            0.010235409841023554,
            0.4249814181408332,
            -0.4439320448416235,
            -0.30940044914167303,
            -0.3314335572659835,
            -0.14447071146038745,
            -0.03385311246862342,
            -0.12097887362143947,
            0.21066113243674522,
            -0.054308053574751075
        ],
        [
            -0.11289428236116061,
            0.0109850590402923,
            -0.3610561795729686,
            0.3029338205384932,
            -0.30285177644686556,
            0.5089506575898314,
            0.3659462362472888,
            -0.30137249695154866,
            -0.5007892717597462,
            0.19834015751547543,
            0.1027750384129963,
            0.20603272388375626,
            0.15815669338080596,
            -0.30334296086941814,
            -0.05313036314726796,
            -0.2630167802666809
        ],
        [
            0.24298135967489223,
            0.051805130309135736,
            -0.17738494391108867,
            -0.509902528537312,
            -0.08839189240444816,
            -0.17501319472580074,
            0.32581437785670714,
            0.15703512712282086,
            0.41684171210421567,
            -0.03477358239138348,
            -0.2594545672601242,
            0.19233366640782326,
            0.14884486014394155,
            0.01018414751578524,
            0.15788611297476063,
            -0.00017484157118304334
        ]
    ],
    "layer_1_bias": [
        0.023743665912349998,
        -0.11353609690837307,
        -0.45398531459586494,
        -0.3769488268957943,
        -0.4894062540294351,
        0.13641264219394542,
        -0.14962554660504593,
        0.06011190764573455,
        0.3936660033738629,
        -0.26784958941887893,
        -0.09360198414935367,
        0.23834705549734803,
        -0.28326107785262067,
        -0.4418300743150299,
        -0.21959744546917453,
        -0.3538428252150696
    ],
    "layer_2_weights": [
        [
            0.28924827848040874,
            0.17956481689546772,
            0.04394735568728134,
            0.23592067698393637,
            0.1756917374649851,
            -0.18420438986020019,
            0.2551021824613244,
            0.0037463887820260804
        ],
        [
            0.2707803987132255,
            0.3595161661472527,
            -0.1444788921863814,
            -0.3485723208479237,
            -0.1485774117725385,
            -0.035271617422297966,
            0.3408712801317545,
            0.32619156545726175
        ],
        [
            -0.5347833557683116,
            -0.031049370033578633,
            -0.04129161940324304,
            -0.24211135786979804,
            -0.2437856203479474,
            -0.12119229776823423,
            0.40503775694418964,
            -0.2195788947352032
        ],
        [
            0.087727156694245,
            0.27070040610114754,
            -0.20550444000827647,
            0.44340012308743343,
            0.31969646099031307,
            -0.3164606309936816,
            -5.9338594064181846e-05,
            -0.12768810536801467
        ],
        [
            -0.10207201588919643,
            -0.3203182936231509,
            0.030172018803648518,
            5.750960052068411e-05,
            -0.3067144344829073,
            -0.10695425036655319,
            0.26948841214009783,
            -0.1388057546613225
        ],
        [
            -0.34132586506796303,
            -0.005453276506362475,
            0.4577321032440128,
            -0.22271170389217204,
            0.06978568875642359,
            0.24240448122021485,
            -0.14041470866502923,
            0.18666904408718454
        ],
        [
            -0.18528531231459824,
            0.07926494905513098,
            0.18694859299456176,
            0.07352713923927993,
            -0.2708155249368747,
            0.3873502857876324,
            -0.1399222933925685,
            -0.36524569326161505
        ],
        [
            -0.48717282424133235,
            0.06281971861617418,
            0.2048862220734985,
            -0.45066641795575174,
            0.00043787398440946223,
            -0.2463929659504945,
            0.11281327301159258,
            -0.35497040023177046
        ],
        [
            0.1602106191078948,
            -0.14384376225015985,
            0.468876555300969,
            -0.2645889947394761,
            -0.06057122559130765,
            -0.35622688075365677,
            0.44960566382616785,
            0.34972256959000475
        ],
        [
            -0.23439219399704286,
            0.14327726942224717,
            0.2857668787925168,
            0.007500768123747662,
            0.002137367488509236,
            -0.13689522779873306,
            -0.37182085742199333,
            0.29611405636585486
        ],
        [
            0.26228975669620186,
            0.043761219243675445,
            -0.061967616430982655,
            -0.055085609391264806,
            0.11061401096579575,
            0.2592619131061851,
            0.2501103864908224,
            0.15520679633672724
        ],
        [
            0.10502297359789595,
            -0.452784243072311,
            -0.30052254880738055,
            0.43722321150777904,
            0.028508710900411374,
            -0.4528421623283923,
            -0.37544570048274284,
            0.12858871185535048
        ],
        [
            -0.350161968706471,
            -0.20695140729466044,
            0.005800333940795899,
            0.08422829584111514,
            0.055864406944080104,
            -0.1516825914177133,
            0.0997414072404092,
            -0.1407399110306305
        ],
        [
            -0.07154672914930467,
            0.1272510886855631,
            0.054319041010171216,
            0.21590491309280013,
            0.05967075317045111,
            0.011648496174004099,
            -0.2677063587030877,
            -0.04325936927492392
        ],
        [
            -0.11771831799971663,
            -0.13511683935973998,
            0.3295751880973152,
            -0.028757359244095393,
            0.2546342907487267,
            0.04255929862446618,
            0.1680163549316708,
            5.645823296593595e-05
        ],
        [
            0.014857111331820059,
            -0.0002135094607841299,
            -0.17663518191203026,
            0.1078254263811708,
            -0.10527285311723748,
            -0.33207952223892884,
            0.05159201719372334,
            -0.19251287914855691
        ]
    ],
    "layer_2_bias": [
        0.40312232130928066,
        0.41667382754149135,
        0.453016347411663,
        -0.08986750676927209,
        -0.48454338347113257,
        0.4665996305550437,
        -0.05114033617921525,
        0.43137218514527614
    ],
    "output_layer_weights": [
        [
            0.7204914850432077
        ],
        [
            0.5400474384247008
        ],
        [
            -0.37649003605382536
        ],
        [
            -0.23288242342472545
        ],
        [
            0.4245633797988329
        ],
        [
            -0.343706238964449
        ],
        [
            -0.5614449029931301
        ],
        [
            0.05616249790535893
        ]
    ],
    "output_layer_bias": [
        0.6746504313858991
    ],
    "activation": "relu"
}