{"layer_1_weights": [[-0.07115549950294332, 0.44937334465682877, 0.25545769830030735, 0.08024363325085432, -0.2984583383292777, -0.4052410370717042, -0.5070920849608272, 0.3959701463842131, 0.09930473802049725, 0.24216736719877144, -0.4387476555935039, 0.516535030289938, 0.3414850168169324, -0.24043531180707836, -0.3534390292400288, -0.2702096945718022], [-0.17301150953065064, -0.00015670254171823116, -0.0506689097062185, -0.2402059893102438, 0.06416935825342256, -0.4293524814134228, -0.21897414126182033, -0.11990163217093341, -0.038581913545479414, 0.3253040671999264, -0.25345786668338305, 0.04025709161270812, 0.09421971613534479, -0.41190135017291685, 0.09692228170514183, -0.2834886612842938], [-0.4761439284461165, 0.4311112898744994, 0.487950026820404, 0.2989307273482269, -0.14633587589181832, -0.4583702359973536, 0.19039760486335347, -0.028554149146696874, -0.33496731368079413, 0.04204896695665609, -0.4244181025998186, 0.49390199216516756, -0.22076810578077002, 0.11341876889907804, -0.19547010283930175, -0.0003993312795164797], [0.10780852313982207, -0.3007880486212643, 0.47373327063592796, 0.2640977572472107, 0.3973264090140158, 0.3638146382314933, 0.06872488278833411, 0.4055257664761369, -0.4623403773566584, -0.34528492301169117, -0.4131704043480613, -0.22752376802369687, -0.17458659146967898, -0.18005299570977454, 0.3124924506622534, -0.09439589720328849], [-0.1692270341515765, 0.034520842734457484, -0.36271636152891407, 0.2925368944990989, -0.38275910984864797, 0.45149847207398236, 0.24694577371003998, -0.3216344312647938, -0.5282916853812615, 0.3418711774347144, 0.15792699857262946, 0.24465323946759412, 0.24356950422784002, -0.38328362631660556, -0.172139206335737, -0.3399627937803465], [0.4350215054291267, 0.14411791848640274, -0.18640330749930267, -0.47712308821502153, -0.13992033075743665, -0.23250238515650049, 0.20238195377201004, 0.13072415044907193, 0.414475770963974, -0.05098202767703504, -0.336108137271096, 0.1836380626263556, 0.23026150661737774, 0.020091917287705662, 0.2839501956387745, 0.00020953767851489315]], "layer_1_bias": [0.08062818615915662, -0.10117956469477137, -0.494160243298623, -0.43223242175719695, -0.4894062540294351, 0.08776405729910186, -0.21714520300209875, 0.02784685591303789, 0.45557775264020883, -0.23242194802057212, -0.09360198414935367, 0.3135804032638274, -0.30133570993544906, -0.4418300743150299, -0.2383049525820828, -0.3538428252150696]}