{
    "layer_1_weights": [
        [
            -0.029549954945516873,
            0.455757572092753,
            0.18037159786267254,
            0.18485354696712858,
            -0.19306131575101934,
            -0.41263373140996873,
            -0.21542636745336555,
            0.3688972510804561,
            0.07723141229689016,
            0.30337983757913,
            -0.31845918193184936,
            0.494968986663057,
            0.1828498547402741,
            -0.14425767186879027,
            -0.17036442792288775,
            -0.16899238011661316
        ],
        [
            -0.07258153719303363,
            0.013977383107053985,
            -0.09337489659668233,
            -0.04971581227374547,
            0.02305613365956654,
            -0.38204349730869375,
            -0.2536698318134232,
            -0.11887450948712404,
            -0.04314885683919579,
            0.3142865250892232,
            -0.15498758193623946,
            -0.01957260735846008,
            0.015089434838090502,
            -0.2938917830139575,
            0.02115270255210586,
            -0.18024041254689516
        ],
        [
            -0.2763742980648893,
            0.43280846593035976,
            0.5097617094418372,
            0.3458669378183156,
            -0.07232059874157426,
            -0.45451788832174655,
            0.24918496017931827,
            -0.0330285246144137,
            -0.40833488758715,
            0.0391222636249779,
            -0.3053196141120564,
            0.3936037666033444,
            -0.10646943686612347,
            0.05050559924724673,
            -0.06739308019353035,
            0.0005343785969088434
        ],
        [
            0.003170334699094827,
            -0.2649741317998067,
            0.42387953987115906,
            0.3753119227398099,
            0.28064727616038426,
            0.357214921547333,
            0.03890978042634642,
            0.36633194835191035,
            -0.49604366823748436,
            -0.3651459668429995,
            -0.29504823765420496,
            -0.11541301165414608,
            -0.022817801013428163,
            -0.09674512853898302,
            0.17959203194202145,
            -0.03905588659689731
        ],
        [
            -0.08950026981488989,
            -0.02304301574223748,
            -0.3050685621524713,
            0.17595220803688597,
            -0.2674819988692623,
            0.5312201599455857,
            0.2981090215724658,
            -0.2658039944738799,
            -0.3961260460704877,
            0.35020419057500096,
            0.08050796451162132,
            0.1317010923908071,
            0.13062164630778422,
            -0.26795471361011286,
            -0.038094087408213,
            -0.22928230956765544
        ],
        [
            0.21018730821415071,
            0.06624777585043985,
            -0.12217667921465189,
            -0.5275140915798666,
            -0.06789393789954898,
            -0.13061092876603697,
            0.3055497540431621,
            0.2171909905694815,
            0.4501302900694131,
            0.037942121015375085,
            -0.22588093369162585,
            0.17647568656656065,
            0.12206123886534048,
            0.0058964124077276955,
            0.1303722780443289,
            -7.824194961641721e-05
        ]
    ],
    "layer_1_bias": [
        0.023743665912349998,
        -0.10762059357223745,
        -0.4933776852617512,
        -0.34579849880885033,
        -0.4894062540294351,
        0.09744684120406422,
        -0.14039328514817265,
        0.028380693135359153,
        0.4088366314759454,
        -0.22045349368287254,
        -0.09360198414935367,
        0.23539828300405732,
        -0.28326107785262067,
        -0.4418300743150299,
        -0.21959744546917453,
        -0.3538428252150696
    ],
    "layer_2_weights": [
        [
            0.25440547491774523,
            0.15045829903320931,
            0.030698564390297084,
            0.20348003130725673,
            0.14685476494600197,
            -0.15478288684652838,
            0.22172869024219438,
            0.0019607901976466387
        ],
        [
            0.2688341596521404,
            0.35758394440573404,
            -0.14223132831088217,
            -0.3152986173828877,
            -0.12181604544939396,
            -0.024829698402220914,
            0.38333413858812887,
            0.3250795284029723
        ],
        [
            -0.4279800843186113,
            0.0783127916722049,
            -0.15175121087672427,
            -0.19501731900917924,
            -0.2109520754984612,
            -0.20014101597176814,
            0.35755895324910275,
            -0.1152155643047877
        ],
        [
            0.08444140955642666,
            0.27112875310620843,
            -0.20544459437177473,
            0.5222444630165458,
            0.28371408655156066,
            -0.2547419567560998,
            -0.06779977746915128,
            -0.13280177301658808
        ],
        [
            -0.07988662764436849,
            -0.2843140963154625,
            0.02002201960372887,
            2.532338686967219e-05,
            -0.27120042244426934,
            -0.08421091710222602,
            0.2354683497988287,
            -0.11288507454038324
        ],
        [
            -0.3049813466007134,
            0.04029774537811529,
            0.4330336497377816,
            -0.289997017641382,
            0.05193424379778223,
            0.22154457019170748,
            -0.28654699439591996,
            0.274018902933807
        ],
        [
            -0.20342599558581684,
            0.061127783078173126,
            0.20613436704933083,
            0.14823425589133502,
            -0.23673792293097606,
            0.43959695110673336,
            -0.13648955508521804,
            -0.37985861505023283
        ],
        [
            -0.413033798299594,
            0.14009550127234155,
            0.1256895057370384,
            -0.4106995572006692,
            0.00020112960625376809,
            -0.30408827696622504,
            0.06204475254302049,
            -0.2851851055622462
        ],
        [
            0.15039205159214467,
            -0.1536964333918973,
            0.4785542374555231,
            -0.22168047256431664,
            -0.044216420543192775,
            -0.32037637706016314,
            0.4793543725478672,
            0.3400222275002474
        ],
        [
            -0.25976898293203116,
            0.14238993705016134,
            0.33383010453775025,
            -0.006589775732351295,
            0.0010693783502183076,
            -0.2722140473944942,
            -0.42012894056982764,
            0.3745332507239409
        ],
        [
            0.22858789842024052,
            0.030550717015543113,
            -0.045376844007771575,
            -0.03969244110635397,
            0.08746625991775218,
            0.22569705346140195,
            0.21697150498636272,
            0.12790497442214013
        ],
        [
            0.10670502953561317,
            -0.45101479006060663,
            -0.30232781228428757,
            0.4639549419495922,
            0.01877448681145278,
            -0.44837126000259436,
            -0.3327892573135401,
            0.1303003623026283
        ],
        [
            -0.31317061937921,
            -0.17609926289171052,
            0.003162473347661202,
            0.06428424499970714,
            0.04033121648855139,
            -0.12466520255210593,
            0.07783015526935425,
            -0.11464844574631726
        ],
        [
            -0.05342458768296289,
            0.10239940145759546,
            0.03906487312564818,
            0.18453629066898122,
            0.043469957382863855,
            0.0068497461101905575,
            -0.2337641038921888,
            -0.030152537662658508
        ],
        [
            -0.09381715699738119,
            -0.10952818433956289,
            0.2932524304245533,
            -0.01896032561439093,
            0.22128255649733244,
            0.029598164214478882,
            0.13973220218174623,
            2.485626418078456e-05
        ],
        [
            0.008995347795187588,
            -9.597739920822954e-05,
            -0.14773198465748183,
            0.08498477715475042,
            -0.08271923634566693,
            -0.2956725625844001,
            0.036842075393513724,
            -0.16254776676306185
        ]
    ],
    "layer_2_bias": [
        0.40851800733641663,
        0.42223106075247574,
        0.447053482458567,
        -0.07452515012912712,
        -0.48454338347113257,
        0.4652647274063748,
        -0.011857518506539853,
        0.4359403955886399
    ],
    "output_layer_weights": [
        [
            0.7206818535099829
        ],
        [
            0.5482858517458323
        ],
        [
            -0.36597547039143463
        ],
        [
            -0.2670684134102417
        ],
        [
            0.3855338365315713
        ],
        [
            -0.32337766723106404
        ],
        [
            -0.4889730909735871
        ],
        [
            0.05750956806079188
        ]
    ],
    "output_layer_bias": [
        0.6803512522436472
    ],
    "activation": "relu"
}