{
  "architecture": {
    "input_size": 6,
    "hidden_layers": [
      16,
      8
    ],
    "output_size": 1,
    "activation": "relu",
    "output_activation": "linear"
  },
  "feature_order": [
    "soft_combat",
    "soft_collect",
    "soft_explore",
    "delta_combat",
    "delta_collect",
    "delta_explore"
  ],
  "weights": [
    [
      [
        0.0017901300452583724,
        0.4443571115979609,
        0.15523988651324394,
        0.20788818292286707,
        -0.15526162648140274,
        -0.4219824332924845,
        -0.226533231060146,
        0.3704451845076797,
        0.08172255150876576,
        0.23842285388547352,
        -0.4362324707798094,
        0.4794166088574717,
        0.3870278144463542,
        -0.2976857986240464,
        -0.13442556021559238,
        -0.13317431417757064
      ],
      [
        -0.0739896943486362,
        -0.017676777504613012,
        -0.14302914652570364,
        -0.11878824233232657,
        0.012030228398612676,
        -0.394299987719627,
        -0.005398280721294166,
        -0.09543417497002868,
        0.00794877009465814,
        0.31924840139491373,
        -0.2724262157177621,
        -0.03920577077301795,
        0.1473443875824583,
        -0.471711741499408,
        0.010809981434844238,
        -0.14346110493668277
      ],
      [
        -0.375117121870239,
        0.41218261607772455,
        0.46396854723878544,
        0.23357007774656866,
        -0.04883185977272031,
        -0.4101248991049435,
        0.35273949668927806,
        0.0036342953222708936,
        -0.31982154214748354,
        0.041475402565734586,
        -0.4184321156374326,
        0.36167086195850096,
        -0.1691247252227523,
        0.1621876846774739,
        -0.0448466406226982,
        0.00011267102469779328
      ],
      [
        0.22396227854374967,
        -0.2712517473183106,
        0.40012434207784325,
        0.38779793988668976,
        0.23745684172576773,
        0.3459491229782049,
        0.05876111714882113,
        0.33502057453813283,
        -0.5164552420237918,
        -0.3549819201559748,
        -0.5128279534164154,
        -0.09504765558053684,
        -0.16667594220432044,
        -0.2215250653849897,
        0.1428663866821301,
        -0.02306501185268987
      ],
      [
        -0.3648377911180748,
        -0.046339561872114014,
        -0.2947001328713652,
        0.3416565258580336,
        -0.22496284108697173,
        0.49914273928841735,
        0.2199051970171185,
        -0.31327359192089677,
        -0.49430786241065516,
        0.33972603111015787,
        0.2522658404696454,
        0.22780839820566434,
        0.31160450021196107,
        -0.44234281477884246,
        -0.022369119453531122,
        -0.18896270170906612
      ],
      [
        0.40582932325829724,
        0.083695951845848,
        -0.12018061329764448,
        -0.5470128563683752,
        -0.04524952802525697,
        -0.1331285973914078,
        0.2857600026845339,
        0.2059942130324245,
        0.46395835050744183,
        0.04703428578915684,
        -0.4191223521379157,
        0.16045140652678194,
        0.3522707538033712,
        0.05721133791303514,
        0.09843514409606482,
        -1.1654523266239379e-05
      ]
    ],
    [
      [
        0.5846302456143985,
        0.4631372993415593,
        -0.023098547085305666,
        0.5173516515728233,
        0.11313819840640185,
        -0.24213355431247235,
        0.23169508628038427,
        0.18738925539477358
      ],
      [
        0.256293423769223,
        0.3451027062628096,
        -0.12832512678020938,
        -0.2764545526494024,
        -0.0908885173415996,
        0.006615956747605822,
        0.37767622449985333,
        0.3161082549211256
      ],
      [
        -0.4211576128064063,
        0.08123619721483508,
        -0.15547849000589425,
        -0.2708537218688478,
        -0.1718465375021797,
        -0.21780583049114957,
        0.3646029122722357,
        -0.11358495535470055
      ],
      [
        0.12066742158415637,
        0.3042549011955757,
        -0.23983126508596897,
        0.3767277688112923,
        0.2403728734094639,
        -0.3495918346446336,
        -0.061316815094484584,
        -0.1069688078844696
      ],
      [
        -0.05503816311511733,
        -0.24094362162642893,
        0.010096811387257081,
        3.3453154243831808e-06,
        -0.2284876055162846,
        -0.05862843386760085,
        0.19476416729635335,
        -0.08308293107163979
      ],
      [
        -0.30390570736271294,
        0.04180649426260131,
        0.4297833313886025,
        -0.3022407533536414,
        0.03268922454576553,
        0.206728029824273,
        -0.2963068803635786,
        0.2689830111250582
      ],
      [
        -0.24808757592136554,
        0.01642166177995189,
        0.2517808130401082,
        0.17806114855106756,
        -0.19595627768956855,
        0.4908108227311662,
        -0.07883496269047086,
        -0.41906676097326495
      ],
      [
        -0.4145868356411992,
        0.1369659946375566,
        0.12685582883206156,
        -0.46101481784038306,
        3.486757949592907e-05,
        -0.3035675310816838,
        0.09696888654697768,
        -0.29674698409408967
      ],
      [
        0.144250809184782,
        -0.15981736088402904,
        0.4848969601413093,
        -0.23982434017425103,
        -0.02685657885317901,
        -0.3011519058187024,
        0.47557854125568394,
        0.3345447017211909
      ],
      [
        -0.27321814664339883,
        0.12894806494962394,
        0.3474785471223075,
        -0.05824044432566771,
        0.0002633860081031535,
        -0.2617265063458616,
        -0.34363365015098524,
        0.3629974435176116
      ],
      [
        0.41470076087584584,
        0.14791826908640604,
        -0.17977906687763628,
        -0.19578939462310033,
        0.061350267391987005,
        0.3478019393609843,
        0.13581719625394295,
        0.2759484088917992
      ],
      [
        0.09361027062019493,
        -0.46412344858344373,
        -0.2878003921543182,
        0.4970233526488834,
        0.009320693667566767,
        -0.4193047010083483,
        -0.3398807851847944,
        0.120653992327208
      ],
      [
        -0.4847106597320366,
        -0.3286790876252668,
        0.0354167903619502,
        0.07111648014978636,
        0.023993146250752453,
        -0.29245050776203235,
        0.19307758799574015,
        -0.266150052491788
      ],
      [
        -0.17759156733615208,
        0.24213118997138725,
        0.14975988702971477,
        0.14740658090991463,
        0.026302384732786146,
        0.1379477557288131,
        -0.40312211596525216,
        -0.13845921907839603
      ],
      [
        -0.06670421032823069,
        -0.08016964495704648,
        0.24945500102481524,
        -0.009435568853733362,
        0.18147856769541615,
        0.01639029700439447,
        0.10675965045056328,
        3.2789463904760126e-06
      ],
      [
        0.0037234351258856567,
        -1.4718289634453518e-05,
        -0.11392624429934384,
        0.05927402394826334,
        -0.057386609383085166,
        -0.2517623421411158,
        0.021468655198300705,
        -0.12731108772661864
      ]
    ],
    [
      [
        0.7072380737345284
      ],
      [
        0.5364643311565884
      ],
      [
        -0.38159711476415015
      ],
      [
        -0.3017252604647833
      ],
      [
        0.3381259751794782
      ],
      [
        -0.3813023250773961
      ],
      [
        -0.5631349631762205
      ],
      [
        0.04456487217522412
      ]
    ]
  ],
  "biases": [
    [
      0.1339036700169778,
      -0.12352220010689186,
      -0.5754392347224679,
      -0.32467865830478143,
      -0.4894062540294351,
      0.10584814159976287,
      -0.01953664495522243,
      0.055958978788651574,
      0.4785218011621991,
      -0.23516028536128677,
      -0.04931973467775093,
      0.21159719577692923,
      -0.22694916023793296,
      -0.4490276827940484,
      -0.21959744546917453,
      -0.3538428252150696
    ],
    [
      0.39360838003228604,
      0.4072359810450763,
      0.4635763251877954,
      -0.034882000364022725,
      -0.48454338347113257,
      0.49704705169881996,
      -0.01494290425908307,
      0.4246821055915159
    ],
    [
      0.6648261596993673
    ]
  ],
  "training_metrics": {
    "train_mae": 0.012952716503602925,
    "test_mae": 0.011224448859186022,
    "train_mse": 0.0006417415804734613,
    "test_mse": 0.0003184345979871648,
    "train_r2": 0.8813047677060298,
    "test_r2": 0.9391784290751803,
    "num_iterations": 23,
    "num_samples": 3240
  },
  "version": "v2.2-optionB-canonical",
  "status": "ACTIVE"
}