{
  "architecture": {
    "input_size": 6,
    "hidden_layers": [
      16,
      8
    ],
    "output_size": 1,
    "activation": "relu",
    "output_activation": "linear"
  },
  "feature_order": [
    "soft_combat",
    "soft_collect",
    "soft_explore",
    "delta_combat",
    "delta_collect",
    "delta_explore"
  ],
  "weights": [
    [
      [
        0.0027004358804714594,
        0.44044649655107504,
        0.14831685356833044,
        0.22161676923090196,
        -0.15526162648140274,
        -0.419990413558519,
        -0.2347187361372299,
        0.36232239423047397,
        0.05825135752613739,
        0.24222704431004,
        -0.37001747895445214,
        0.48774246709870545,
        0.3778096085644084,
        -0.3049947979097142,
        -0.13442556021559238,
        -0.13317431417757064
      ],
      [
        -0.06855211957187572,
        -0.019654739550998626,
        -0.14398906656908633,
        -0.11336245343023432,
        0.012030228398612676,
        -0.3837039885974073,
        -0.016184565111795224,
        -0.09142173257004887,
        0.008217561762605966,
        0.3211388793486347,
        -0.2458673949057307,
        -0.03631934498646622,
        0.1455219579565758,
        -0.48252019001325375,
        0.010809981434844238,
        -0.14346110493668277
      ],
      [
        -0.37420263648061936,
        0.4149703757679073,
        0.4740750233553095,
        0.269653078962102,
        -0.04883185977272031,
        -0.40298493604651126,
        0.35846139070994926,
        0.0018796414527280088,
        -0.3187971358545854,
        0.0403617541293246,
        -0.3464940606794611,
        0.3622799540394544,
        -0.17120667890978536,
        0.15012499478923824,
        -0.0448466406226982,
        0.00011267102469779328
      ],
      [
        0.2209867749279735,
        -0.27071317493281793,
        0.39671682851813866,
        0.4012862929529183,
        0.23745684172576773,
        0.3440306895115596,
        0.049221715145830854,
        0.3323459926462877,
        -0.5185496694444655,
        -0.35537534975149676,
        -0.5602414709595912,
        -0.08796158548542878,
        -0.16855121177117224,
        -0.21933523598608648,
        0.1428663866821301,
        -0.02306501185268987
      ],
      [
        -0.3463997978285483,
        -0.052812128146221056,
        -0.28892879986572834,
        0.3097639221883841,
        -0.22496284108697173,
        0.5095599913905551,
        0.2693137679421953,
        -0.3218690632399571,
        -0.5049870129763062,
        0.3424188231983747,
        0.2691794136987343,
        0.23328288006033193,
        0.31415622848966546,
        -0.42420051031238803,
        -0.022369119453531122,
        -0.18896270170906612
      ],
      [
        0.40808677488811573,
        0.09004485623835398,
        -0.11036762418911071,
        -0.5512601719613173,
        -0.04524952802525697,
        -0.14343949091255187,
        0.27409938041087073,
        0.1961529618908963,
        0.45693804190643217,
        0.03780776127252077,
        -0.3912959977990291,
        0.1625389294110734,
        0.35029070749987545,
        0.04436468884676478,
        0.09843514409606482,
        -1.1654523266239379e-05
      ]
    ],
    [
      [
        0.5716375647320621,
        0.4549803147105498,
        -0.01562935347436626,
        0.5607291748810955,
        0.11313819840640185,
        -0.2301978009180988,
        0.23459761928341064,
        0.17899313381486395
      ],
      [
        0.25687320249502016,
        0.3457079451406806,
        -0.12897545941841052,
        -0.28066266866303424,
        -0.0908885173415996,
        -0.00019729659324460347,
        0.3798135598890301,
        0.31648047041093974
      ],
      [
        -0.42152460541561376,
        0.08131765103038717,
        -0.15572855711212427,
        -0.29263551746316885,
        -0.1718465375021797,
        -0.2254446308167132,
        0.36937041140636306,
        -0.11365837597802858
      ],
      [
        0.11945388224147171,
        0.3042550553977572,
        -0.2394367814765704,
        0.40475395949871856,
        0.2403728734094639,
        -0.3456265630946663,
        -0.08812675173302759,
        -0.10456621859845584
      ],
      [
        -0.05503816311511733,
        -0.24094362162642893,
        0.010096811387257081,
        3.3453154243831808e-06,
        -0.2284876055162846,
        -0.05862843386760085,
        0.19476416729635335,
        -0.08308293107163979
      ],
      [
        -0.3096912812927253,
        0.03752660643648757,
        0.43437969947946675,
        -0.29294485472619364,
        0.03268922454576553,
        0.21244545832977774,
        -0.3072893696432979,
        0.2654509255157957
      ],
      [
        -0.25735898650534333,
        0.007117685319741334,
        0.26101062012421006,
        0.19487821986439807,
        -0.19595627768956855,
        0.4906601091746518,
        -0.06876086117896453,
        -0.4272498550052731
      ],
      [
        -0.41771094950032583,
        0.1357683901715935,
        0.12790163014048975,
        -0.4289039423601745,
        3.486757949592907e-05,
        -0.32441074127951963,
        0.09834817593206469,
        -0.29901417931162816
      ],
      [
        0.14461412724624723,
        -0.1593966997830785,
        0.4842988097222145,
        -0.22739920266905506,
        -0.02685657885317901,
        -0.30867156808583135,
        0.47354446351087537,
        0.33449450006075016
      ],
      [
        -0.27186502024283554,
        0.13023847097577113,
        0.34592966934771935,
        -0.03600805043718923,
        0.0002633860081031535,
        -0.2620245320542974,
        -0.34607622910138747,
        0.3639167173746087
      ],
      [
        0.39135430448543523,
        0.1251807296255987,
        -0.15604682790951838,
        -0.16022526904837486,
        0.061350267391987005,
        0.3768571590904964,
        0.1658492656033185,
        0.24444065391668562
      ],
      [
        0.09352950616872133,
        -0.4641518331709006,
        -0.2878003110217753,
        0.4896311739694323,
        0.009320693667566767,
        -0.42526288622800784,
        -0.3367655286868184,
        0.1204635835764459
      ],
      [
        -0.485949133782141,
        -0.33001572859553563,
        0.03734864623503064,
        0.08371602472467865,
        0.023993146250752453,
        -0.3017853816712698,
        0.18976016633165793,
        -0.2652687980954273
      ],
      [
        -0.1879674340602492,
        0.2289415569797893,
        0.16160547319810115,
        0.14740658090991463,
        0.026302384732786146,
        0.002649113267653514,
        -0.3866786253422939,
        -0.13655189542621762
      ],
      [
        -0.06670421032823069,
        -0.08016964495704648,
        0.24945500102481524,
        -0.009435568853733362,
        0.18147856769541615,
        0.01639029700439447,
        0.10675965045056328,
        3.2789463904760126e-06
      ],
      [
        0.0037234351258856567,
        -1.4718289634453518e-05,
        -0.11392624429934384,
        0.05927402394826334,
        -0.057386609383085166,
        -0.2517623421411158,
        0.021468655198300705,
        -0.12731108772661864
      ]
    ],
    [
      [
        0.7074197089093114
      ],
      [
        0.5348302362401469
      ],
      [
        -0.38176077923429397
      ],
      [
        -0.28904851950001237
      ],
      [
        0.3381259751794782
      ],
      [
        -0.37067737687076485
      ],
      [
        -0.5558903266038737
      ],
      [
        0.04471651896367826
      ]
    ]
  ],
  "biases": [
    [
      0.13934288381126744,
      -0.12412012128453542,
      -0.5835382064812016,
      -0.3127938093659549,
      -0.4894062540294351,
      0.11837926748545684,
      -0.016029774447028314,
      0.060386912288216986,
      0.4822442735076538,
      -0.2324803222398504,
      -0.015458941896684128,
      0.2118737510874033,
      -0.22718450743863342,
      -0.4613314297216241,
      -0.21959744546917453,
      -0.3538428252150696
    ],
    [
      0.39332124966637666,
      0.4070219676878836,
      0.46373585914976145,
      -0.04398849869078355,
      -0.48454338347113257,
      0.49120609224746437,
      -0.012115736070571422,
      0.4242587478737395
    ],
    [
      0.6646276562158376
    ]
  ],
  "training_metrics": {
    "train_mae": 0.010339274013686955,
    "test_mae": 0.010166201840759016,
    "train_mse": 0.00017790062074233743,
    "test_mse": 0.00017382697967842524,
    "train_r2": 0.9549796117348919,
    "test_r2": 0.9523675028506337,
    "num_iterations": 23,
    "num_samples": 3240
  },
  "version": "v2.2-optionB-canonical",
  "status": "ACTIVE"
}