{
  "architecture": {
    "input_size": 6,
    "hidden_layers": [
      16,
      8
    ],
    "output_size": 1,
    "activation": "relu",
    "output_activation": "linear"
  },
  "feature_order": [
    "soft_combat",
    "soft_collect",
    "soft_explore",
    "delta_combat",
    "delta_collect",
    "delta_explore"
  ],
  "weights": [
    [
      [
        0.0017901300452582746,
        0.44435711159796093,
        0.15523988651324386,
        0.20788818292286704,
        -0.15526162648140274,
        -0.4219824332924846,
        -0.226533231060146,
        0.3704451845076797,
        0.08172255150876563,
        0.23842285388547343,
        -0.4362324707798096,
        0.4794166088574718,
        0.38702781444635415,
        -0.2976857986240463,
        -0.13442556021559238,
        -0.13317431417757064
      ],
      [
        -0.07398969434863614,
        -0.017676777504613023,
        -0.1430291465257037,
        -0.11878824233232645,
        0.012030228398612676,
        -0.39429998771962693,
        -0.005398280721294073,
        -0.09543417497002862,
        0.007948770094658185,
        0.31924840139491373,
        -0.27242621571776215,
        -0.03920577077301796,
        0.14734438758245838,
        -0.4717117414994081,
        0.010809981434844238,
        -0.14346110493668277
      ],
      [
        -0.3751171218702389,
        0.41218261607772455,
        0.4639685472387857,
        0.23357007774656866,
        -0.04883185977272031,
        -0.41012489910494343,
        0.35273949668927806,
        0.0036342953222708915,
        -0.31982154214748354,
        0.04147540256573451,
        -0.4184321156374327,
        0.3616708619585009,
        -0.16912472522275226,
        0.1621876846774739,
        -0.0448466406226982,
        0.00011267102469779328
      ],
      [
        0.2239622785437496,
        -0.27125174731831064,
        0.40012434207784303,
        0.38779793988668965,
        0.23745684172576773,
        0.3459491229782049,
        0.058761117148821006,
        0.33502057453813283,
        -0.5164552420237918,
        -0.3549819201559748,
        -0.5128279534164152,
        -0.09504765558053689,
        -0.1666759422043203,
        -0.22152506538498973,
        0.1428663866821301,
        -0.02306501185268987
      ],
      [
        -0.36483779111807474,
        -0.04633956187211396,
        -0.29470013287136515,
        0.3416565258580332,
        -0.22496284108697173,
        0.49914273928841735,
        0.2199051970171185,
        -0.3132735919208967,
        -0.4943078624106552,
        0.3397260311101578,
        0.2522658404696454,
        0.22780839820566423,
        0.31160450021196084,
        -0.4423428147788425,
        -0.022369119453531122,
        -0.18896270170906612
      ],
      [
        0.40582932325829724,
        0.083695951845848,
        -0.1201806132976443,
        -0.5470128563683753,
        -0.04524952802525697,
        -0.13312859739140773,
        0.2857600026845339,
        0.20599421303242452,
        0.4639583505074419,
        0.04703428578915697,
        -0.41912235213791593,
        0.16045140652678203,
        0.35227075380337114,
        0.05721133791303514,
        0.09843514409606482,
        -1.1654523266239379e-05
      ]
    ],
    [
      [
        0.5846302456143984,
        0.4631372993415592,
        -0.023098547085305583,
        0.5173516515728235,
        0.11313819840640185,
        -0.24213355431247224,
        0.23169508628038435,
        0.18738925539477352
      ],
      [
        0.25629342376922293,
        0.3451027062628096,
        -0.12832512678020938,
        -0.2764545526494024,
        -0.0908885173415996,
        0.006615956747605852,
        0.37767622449985333,
        0.3161082549211256
      ],
      [
        -0.42115761280640635,
        0.081236197214835,
        -0.15547849000589417,
        -0.27085372186884416,
        -0.1718465375021797,
        -0.21780583049114963,
        0.3646029122722356,
        -0.11358495535470055
      ],
      [
        0.12066742158415636,
        0.3042549011955757,
        -0.23983126508596894,
        0.3767277688112924,
        0.2403728734094639,
        -0.34959183464463345,
        -0.06131681509448449,
        -0.10696880788446961
      ],
      [
        -0.05503816311511733,
        -0.24094362162642893,
        0.010096811387257081,
        3.3453154243831808e-06,
        -0.2284876055162846,
        -0.05862843386760085,
        0.19476416729635335,
        -0.08308293107163979
      ],
      [
        -0.3039057073627129,
        0.04180649426260136,
        0.4297833313886025,
        -0.3022407533536416,
        0.03268922454576553,
        0.206728029824273,
        -0.2963068803635785,
        0.26898301112505824
      ],
      [
        -0.2480875759213655,
        0.01642166177995189,
        0.2517808130401082,
        0.17806114855106742,
        -0.19595627768956855,
        0.49081082273116644,
        -0.07883496269047091,
        -0.4190667609732649
      ],
      [
        -0.41458683564119914,
        0.13696599463755668,
        0.12685582883206145,
        -0.4610148178403826,
        3.486757949592907e-05,
        -0.30356753108168366,
        0.09696888654697754,
        -0.29674698409408956
      ],
      [
        0.14425080918478198,
        -0.15981736088402906,
        0.4848969601413093,
        -0.23982434017425103,
        -0.02685657885317901,
        -0.30115190581870244,
        0.47557854125568394,
        0.3345447017211909
      ],
      [
        -0.2732181466433988,
        0.1289480649496239,
        0.3474785471223075,
        -0.05824044432566773,
        0.0002633860081031535,
        -0.26172650634586136,
        -0.34363365015098535,
        0.3629974435176116
      ],
      [
        0.41470076087584573,
        0.14791826908640582,
        -0.1797790668776361,
        -0.1957893946231003,
        0.061350267391987005,
        0.3478019393609845,
        0.13581719625394348,
        0.27594840889179933
      ],
      [
        0.09361027062019488,
        -0.46412344858344373,
        -0.2878003921543182,
        0.4970233526488835,
        0.009320693667566767,
        -0.4193047010083483,
        -0.3398807851847944,
        0.12065399232720798
      ],
      [
        -0.4847106597320365,
        -0.3286790876252666,
        0.035416790361950085,
        0.07111648014978623,
        0.023993146250752453,
        -0.2924505077620317,
        0.19307758799573996,
        -0.26615005249178797
      ],
      [
        -0.17759156733615203,
        0.24213118997138725,
        0.14975988702971477,
        0.14740658090991463,
        0.026302384732786146,
        0.1379477557288131,
        -0.4031221159652521,
        -0.13845921907839603
      ],
      [
        -0.06670421032823069,
        -0.08016964495704648,
        0.24945500102481524,
        -0.009435568853733362,
        0.18147856769541615,
        0.01639029700439447,
        0.10675965045056328,
        3.2789463904760126e-06
      ],
      [
        0.0037234351258856567,
        -1.4718289634453518e-05,
        -0.11392624429934384,
        0.05927402394826334,
        -0.057386609383085166,
        -0.2517623421411158,
        0.021468655198300705,
        -0.12731108772661864
      ]
    ],
    [
      [
        0.7072380737345282
      ],
      [
        0.5364643311565884
      ],
      [
        -0.3815971147641501
      ],
      [
        -0.3017252604647832
      ],
      [
        0.3381259751794782
      ],
      [
        -0.3813023250773961
      ],
      [
        -0.5631349631762205
      ],
      [
        0.044564872175224125
      ]
    ]
  ],
  "biases": [
    [
      0.13390367001697775,
      -0.12352220010689186,
      -0.5754392347224682,
      -0.3246786583047815,
      -0.4894062540294351,
      0.10584814159976283,
      -0.019536644955222438,
      0.05595897878865157,
      0.4785218011621991,
      -0.2351602853612868,
      -0.049319734677751,
      0.21159719577692923,
      -0.226949160237933,
      -0.4490276827940484,
      -0.21959744546917453,
      -0.3538428252150696
    ],
    [
      0.39360838003228604,
      0.4072359810450763,
      0.4635763251877954,
      -0.03488200036402269,
      -0.48454338347113257,
      0.49704705169881996,
      -0.014942904259083048,
      0.4246821055915159
    ],
    [
      0.6648261596993674
    ]
  ],
  "training_metrics": {
    "train_mae": 0.01295271650360292,
    "test_mae": 0.011224448859186022,
    "train_mse": 0.0006417415804734608,
    "test_mse": 0.0003184345979871649,
    "train_r2": 0.88130476770603,
    "test_r2": 0.9391784290751803,
    "num_iterations": 23,
    "num_samples": 3240
  },
  "version": "v2.2-optionB-canonical",
  "status": "ACTIVE"
}