{
  "architecture": {
    "input_size": 6,
    "hidden_layers": [
      16,
      8
    ],
    "output_size": 1,
    "activation": "relu",
    "output_activation": "linear"
  },
  "feature_order": [
    "soft_combat",
    "soft_collect",
    "soft_explore",
    "delta_combat",
    "delta_collect",
    "delta_explore"
  ],
  "weights": [
    [
      [
        -0.0434172567880703,
        0.46161199314987933,
        0.17029669363426686,
        0.18514650923010784,
        -0.18507450783247248,
        -0.4070833616073428,
        -0.2357118592903168,
        0.35367464608071303,
        0.05756408812250212,
        0.22138891231068047,
        -0.37238050100092496,
        0.5090991003952179,
        0.41366280247940923,
        -0.20767387915287266,
        -0.1627112852597521,
        -0.16136098663256357
      ],
      [
        -0.08204968890383245,
        0.007717204308451426,
        -0.1397408292850208,
        -0.11281727479449931,
        0.020260198249364356,
        -0.40198030813065916,
        -0.019311571734422994,
        -0.1174118000414201,
        -0.034501578945611844,
        0.27277341443394093,
        -0.20477218407965778,
        0.0007777423874743553,
        0.11563585942449116,
        -0.3798151141770132,
        0.018507164401577094,
        -0.17243625900730464
      ],
      [
        -0.3852329293220285,
        0.4251766540825592,
        0.436854543758226,
        0.29751740961808515,
        -0.06698052204658952,
        -0.4303679441452368,
        0.34163665087546125,
        -0.020688520827782112,
        -0.36735417994290687,
        0.004350137648998675,
        -0.34415192227896235,
        0.3860395334741864,
        -0.20113356210281855,
        0.2068952739417943,
        -0.06223537846545645,
        0.00038437632908884674
      ],
      [
        0.17468395219080243,
        -0.27579638543287954,
        0.4184276215187987,
        0.3582033346572748,
        0.2717067064780779,
        0.36621516687060024,
        -0.002464343198800846,
        0.3712722931495958,
        -0.4925575734276498,
        -0.3423667482097634,
        -0.5784500113392835,
        -0.11542164522893004,
        -0.13831038503118465,
        -0.2550002063937998,
        0.17179750492654713,
        -0.03520719829085896
      ],
      [
        -0.32948197368246845,
        0.012762353712576913,
        -0.29967292739804935,
        0.36722872807289175,
        -0.2586592564078006,
        0.4885992261306618,
        0.2940982736216189,
        -0.3057013942837394,
        -0.4874231566019488,
        0.30114964572030023,
        0.29112253096942525,
        0.2220444109047654,
        0.29037924560243444,
        -0.48625377902779615,
        -0.034300229540234844,
        -0.22084744420920666
      ],
      [
        0.42092385273844846,
        0.07969336445354668,
        -0.11989860704848955,
        -0.529162435548734,
        -0.06271721534916647,
        -0.14840032837319944,
        0.30651757244568556,
        0.1762833900749294,
        0.4346569462030416,
        0.050948522846427674,
        -0.4180963792918606,
        0.17785423192335692,
        0.3162014026746063,
        0.10266879430932167,
        0.12344587855327813,
        -5.189340020029434e-05
      ]
    ],
    [
      [
        0.5394436626284774,
        0.41795711987584216,
        0.02310660708635824,
        0.1918994432706094,
        0.1396035583693576,
        -0.3015017364960698,
        0.28376074277414803,
        0.14690384364961928
      ],
      [
        0.26627886252337973,
        0.3549981894337178,
        -0.13944290566079645,
        -0.3122085710256731,
        -0.11507520388015309,
        -0.015107204968189557,
        0.35341549086540935,
        0.3232870412375116
      ],
      [
        -0.4357542302337944,
        0.06781077611614285,
        -0.1411505602054912,
        -0.26935644838114026,
        -0.202732561540143,
        -0.20375554842722599,
        0.38360831859568045,
        -0.1242490858574743
      ],
      [
        0.05037417071997521,
        0.23460941531852098,
        -0.168786363983895,
        0.48959904347222327,
        0.27474708472967957,
        -0.2772147640534562,
        -0.03565204981867324,
        -0.16615111631289986
      ],
      [
        -0.07428554808523981,
        -0.27534196623078033,
        0.01746917747263248,
        1.632756120495796e-05,
        -0.2623436622331329,
        -0.07846994697854043,
        0.22696546056849667,
        -0.1063522235160498
      ],
      [
        -0.3117520791742917,
        0.0326347645198008,
        0.4416875717433988,
        -0.2812651429913894,
        0.04742623455450084,
        0.22168672674868078,
        -0.2667354187033886,
        0.2701167386211487
      ],
      [
        -0.23783394553780743,
        0.026616441764162477,
        0.24009626229639802,
        0.18833457139809376,
        -0.22822134290848206,
        0.43704060494592045,
        -0.1428843225331828,
        -0.4122109787718252
      ],
      [
        -0.40412422091139005,
        0.14670929548364942,
        0.12067650871184593,
        -0.3988322764774345,
        0.0001382313791878926,
        -0.34669093780083804,
        0.08948635868415154,
        -0.27375498923648023
      ],
      [
        0.16170173650202443,
        -0.1424553744208418,
        0.466264819092303,
        -0.26590284011418425,
        -0.04008782608132689,
        -0.34160015986741415,
        0.44638464906703623,
        0.348781690444261
      ],
      [
        -0.23792237144159006,
        0.16407728190283807,
        0.3108362056191543,
        -0.006834484395660567,
        0.0007971673429062984,
        -0.3261615765907287,
        -0.33826728079027923,
        0.39399677994226867
      ],
      [
        0.3759142167569336,
        0.10918131259527435,
        -0.13820935906669907,
        -0.07150151627724152,
        0.08162403573346146,
        0.416243939289513,
        0.16835249644323338,
        0.24200844409066122
      ],
      [
        0.10852159481839373,
        -0.4492989754416633,
        -0.30409380427301475,
        0.4379141148425342,
        0.016327061221556347,
        -0.44930987031702674,
        -0.36843650770921177,
        0.13189992636895623
      ],
      [
        -0.4718361808479089,
        -0.3160571290775464,
        0.0249447019530917,
        0.1466246198990524,
        0.036411167164536365,
        -0.306228494184993,
        0.24997380557170648,
        -0.24222076078823518
      ],
      [
        -0.17914082954669888,
        0.23788458798227413,
        0.15127699783004422,
        0.17666932950260494,
        0.03938044257085888,
        0.02040318053643274,
        -0.39752501915332095,
        -0.13303473819300657
      ],
      [
        -0.08778664075800076,
        -0.10307766717303349,
        0.28420552554500333,
        -0.016496978812577896,
        0.21293903752646742,
        0.026331541212165355,
        0.13261646720376255,
        1.6021018712520348e-05
      ],
      [
        0.007525950199252835,
        -6.409310923948788e-05,
        -0.14046457265313697,
        0.0792194307912975,
        -0.07702580756730351,
        -0.28660592000438817,
        0.03312094842319375,
        -0.15502120270196554
      ]
    ],
    [
      [
        0.7243987878374909
      ],
      [
        0.5524517719245265
      ],
      [
        -0.35515168696507576
      ],
      [
        -0.17523754665262883
      ],
      [
        0.37585823866688395
      ],
      [
        -0.30132775926595534
      ],
      [
        -0.5198618880426924
      ],
      [
        0.061658096110711415
      ]
    ]
  ],
  "biases": [
    [
      0.11677076944483505,
      -0.10858359534488565,
      -0.567692633223615,
      -0.3228089344944862,
      -0.4894062540294351,
      0.11175964440667173,
      -0.02710879694131911,
      0.03882974140372212,
      0.4371049813759286,
      -0.27309233206113576,
      0.02153345507602276,
      0.23827231790223055,
      -0.24193133726207638,
      -0.3987525602679209,
      -0.21959744546917453,
      -0.3538428252150696
    ],
    [
      0.41309064638539833,
      0.4266319784914588,
      0.442454215192823,
      -0.11109769670758929,
      -0.48454338347113257,
      0.46023783999786105,
      -0.05090745021125493,
      0.43967169297130265
    ],
    [
      0.6848475715029233
    ]
  ],
  "training_metrics": {
    "train_mae": 0.01117083789996909,
    "test_mae": 0.011228839671947368,
    "train_mse": 0.00021412509990905522,
    "test_mse": 0.00021907817405773347,
    "train_r2": -4.923529425439621,
    "test_r2": -4.958518994536391,
    "num_iterations": 19,
    "num_samples": 3164
  },
  "version": "2.0",
  "status": "FROZEN"
}