{
  "architecture": {
    "input_size": 6,
    "hidden_layers": [
      16,
      8
    ],
    "output_size": 1,
    "activation": "relu",
    "output_activation": "linear"
  },
  "feature_order": [
    "soft_combat",
    "soft_collect",
    "soft_explore",
    "delta_combat",
    "delta_collect",
    "delta_explore"
  ],
  "weights": [
    [
      [
        -0.012053120480305277,
        0.4594674762831875,
        0.16105836764952688,
        0.20985469743005158,
        -0.16985233630113578,
        -0.4227451169263586,
        -0.2315509653623885,
        0.34897375913450046,
        0.06385353697269626,
        0.22842614023364344,
        -0.434326108328484,
        0.5041481759582808,
        0.3974846149277757,
        -0.29629637816265036,
        -0.14825883095570347,
        -0.14695841781834715
      ],
      [
        -0.06422040172665056,
        -0.009102155743259557,
        -0.14662297499345195,
        -0.10112929068712861,
        0.015922322956330528,
        -0.4100642071737576,
        -0.0060251113647501985,
        -0.11050461640662104,
        -0.012678891065212852,
        0.29883354935877976,
        -0.2699183722639435,
        -0.023290244447255717,
        0.14772366008406426,
        -0.4703750126789602,
        0.014442302689210668,
        -0.1576364634908154
      ],
      [
        -0.3733830358716553,
        0.4141577499904498,
        0.44222415921259484,
        0.2459880345251213,
        -0.057622403820633016,
        -0.437548133534455,
        0.35028191100574957,
        -0.0062989371091399385,
        -0.3320789051197224,
        0.02445159321323396,
        -0.41509513484120836,
        0.36909222541182896,
        -0.16194727009472892,
        0.16285355213668296,
        -0.05325939240048502,
        0.00022907647632799656
      ],
      [
        0.2055038856263834,
        -0.26947223948524185,
        0.4089107046184158,
        0.3864922030083673,
        0.2542400758953785,
        0.34805688464545426,
        0.029504585472386446,
        0.35186673978987554,
        -0.5118706633642903,
        -0.34971387271188276,
        -0.5245004221785592,
        -0.10363452743459625,
        -0.16540986343737743,
        -0.22214966596427366,
        0.15701990194907017,
        -0.028878080488484045
      ],
      [
        -0.356076214609688,
        -0.03411574802101328,
        -0.289545130189232,
        0.3561387666687845,
        -0.24147337373106204,
        0.4852266418695331,
        0.18730339698546644,
        -0.3079156582813125,
        -0.4844465799220247,
        0.32269627678923907,
        0.25320189855488934,
        0.22080963755331331,
        0.3075922798449372,
        -0.44317335971772576,
        -0.028078054704496647,
        -0.2045789103564994
      ],
      [
        0.38879038269961846,
        0.07620117633653524,
        -0.11850947495131427,
        -0.5508203560026919,
        -0.053701519440547636,
        -0.12695558725408898,
        0.3194582784336447,
        0.19989439856590907,
        0.4622469271901496,
        0.06085350158635124,
        -0.384778753555228,
        0.1644585127716943,
        0.35584432054709225,
        0.0578699323855302,
        0.11064083092520867,
        -2.8291836373685594e-05
      ]
    ],
    [
      [
        0.5713707040320539,
        0.44999878426326734,
        -0.009401805639148879,
        0.3466114049670654,
        0.12606724474628614,
        -0.30269243383451105,
        0.24611502328153798,
        0.17593376841210145
      ],
      [
        0.25856802941175444,
        0.34731967255197005,
        -0.13088799284894184,
        -0.28975560227328806,
        -0.10268418952953894,
        0.0032308047368627734,
        0.37058261188326413,
        0.3176906968746497
      ],
      [
        -0.43134051667864176,
        0.07209895102871837,
        -0.1460815837119023,
        -0.2819148777010243,
        -0.18696874761282808,
        -0.205799325697874,
        0.3762033084740139,
        -0.1215570358560958
      ],
      [
        0.11071018759959286,
        0.29503062711966505,
        -0.23018013409072935,
        0.3894942392808241,
        0.2572173421407085,
        -0.33558400050802417,
        -0.05395724965847772,
        -0.11344791870751166
      ],
      [
        -0.06437524186467847,
        -0.2577999733052522,
        0.013571031841508851,
        8.651709904034607e-06,
        -0.24507682399920852,
        -0.06826116422194053,
        0.21053681259076346,
        -0.09442200757308548
      ],
      [
        -0.30195461429160275,
        0.043088739851362225,
        0.43029169551408236,
        -0.2974974482811947,
        0.03978572265253515,
        0.2085853769425144,
        -0.2737638434979723,
        0.27690812661459635
      ],
      [
        -0.25032612433491686,
        0.014066570512951456,
        0.2535684437102468,
        0.2278893405535099,
        -0.21176043003849498,
        0.48877378994259085,
        -0.08893501305216513,
        -0.42279123443087974
      ],
      [
        -0.38744753407730737,
        0.1628876016258773,
        0.10345425381608966,
        -0.5750955529783504,
        7.825694452152544e-05,
        -0.35437716023371446,
        0.07748610121174228,
        -0.2627455900397614
      ],
      [
        0.1490940441299771,
        -0.1550066795053643,
        0.47974280884579196,
        -0.26522567766071914,
        -0.03320761859793072,
        -0.31270204424745773,
        0.46766334023108797,
        0.33849548832368254
      ],
      [
        -0.2660114583387706,
        0.13622288970087362,
        0.34010590653671474,
        -0.06708226475179643,
        0.0004959288640723877,
        -0.3090815875359672,
        -0.3357577869325034,
        0.36950863245067644
      ],
      [
        0.4138053710543958,
        0.1472361551116503,
        -0.17802856605040868,
        -0.1561783787249821,
        0.07119813529905111,
        0.38622010531026635,
        0.1662034614486024,
        0.2766375381886404
      ],
      [
        0.09880803287686502,
        -0.4589919188202398,
        -0.293523385029927,
        0.46502350140094484,
        0.012617031638913492,
        -0.42768239348089726,
        -0.3511529346722161,
        0.12441460588680343
      ],
      [
        -0.47453500736934145,
        -0.31829309463679617,
        0.025402426477305232,
        0.0749471982533549,
        0.029942364378451627,
        -0.2550580738606852,
        0.183073090198948,
        -0.2550649425962683
      ],
      [
        -0.17614382123487451,
        0.2435661502811306,
        0.14855517357806283,
        0.16172457225084014,
        0.03257768666770646,
        0.07683859918208305,
        -0.40417867305322136,
        -0.13643224845510252
      ],
      [
        -0.07695461640403811,
        -0.09132888641523129,
        0.2664847055678789,
        -0.012758640094743187,
        0.19688499714198454,
        0.02112005716630452,
        0.11938615213410914,
        8.486479351961546e-06
      ],
      [
        0.005477730937302199,
        -3.519129231746094e-05,
        -0.12689155983067849,
        0.06895846065154008,
        -0.06691865582724245,
        -0.2688378323159412,
        0.027040109540491783,
        -0.140858580689136
      ]
    ],
    [
      [
        0.7131022248731618
      ],
      [
        0.5447190313177884
      ],
      [
        -0.37209657606749647
      ],
      [
        -0.22002623683719774
      ],
      [
        0.3566187908526142
      ],
      [
        -0.35958066020309215
      ],
      [
        -0.5582951492807895
      ],
      [
        0.05025655151173461
      ]
    ]
  ],
  "biases": [
    [
      0.13356810135017697,
      -0.11844622405550634,
      -0.5772053265082431,
      -0.30944658316963247,
      -0.4894062540294351,
      0.09283324167733831,
      -0.021589897977066418,
      0.04365991492400187,
      0.46255573532047367,
      -0.2522269493792064,
      -0.04666800637497536,
      0.2216217812628602,
      -0.22034354539683734,
      -0.44833795521937786,
      -0.21959744546917453,
      -0.3538428252150696
    ],
    [
      0.4013139099000008,
      0.41486799878181824,
      0.4551282896942491,
      -0.07761951157386093,
      -0.48454338347113257,
      0.4847750836579718,
      -0.03133987888282345,
      0.43029838340015003
    ],
    [
      0.6727420496695723
    ]
  ],
  "training_metrics": {
    "train_mae": 0.013926157357563945,
    "test_mae": 0.01270477975194402,
    "train_mse": 0.0007729149867484851,
    "test_mse": 0.0003854491910403667,
    "train_r2": 0.8599571583746453,
    "test_r2": 0.9263848891272095,
    "num_iterations": 21,
    "num_samples": 3240
  },
  "mlp_neutral": 0.932,
  "version": "v2.2-optionB-canonical",
  "status": "ACTIVE"
}