{
  "architecture": {
    "input_size": 6,
    "hidden_layers": [
      16,
      8
    ],
    "output_size": 1,
    "activation": "relu",
    "output_activation": "linear"
  },
  "feature_order": [
    "soft_combat",
    "soft_collect",
    "soft_explore",
    "delta_combat",
    "delta_collect",
    "delta_explore"
  ],
  "weights": [
    [
      [
        0.0017901300452582867,
        0.44435711159796093,
        0.15523988651324386,
        0.2078881829228671,
        -0.15526162648140274,
        -0.4219824332924846,
        -0.22653323106014595,
        0.3704451845076797,
        0.08172255150876567,
        0.23842285388547343,
        -0.4362324707798095,
        0.4794166088574718,
        0.38702781444635415,
        -0.2976857986240464,
        -0.13442556021559238,
        -0.13317431417757064
      ],
      [
        -0.07398969434863607,
        -0.01767677750461302,
        -0.14302914652570373,
        -0.11878824233232642,
        0.012030228398612676,
        -0.3942999877196269,
        -0.00539828072129409,
        -0.09543417497002865,
        0.007948770094658181,
        0.31924840139491373,
        -0.2724262157177622,
        -0.039205770773017956,
        0.14734438758245838,
        -0.47171174149940814,
        0.010809981434844238,
        -0.14346110493668277
      ],
      [
        -0.3751171218702389,
        0.41218261607772455,
        0.4639685472387857,
        0.23357007774656863,
        -0.04883185977272031,
        -0.41012489910494343,
        0.3527394966892781,
        0.003634295322270911,
        -0.31982154214748354,
        0.041475402565734516,
        -0.4184321156374326,
        0.3616708619585009,
        -0.16912472522275226,
        0.1621876846774739,
        -0.0448466406226982,
        0.00011267102469779328
      ],
      [
        0.22396227854374956,
        -0.27125174731831064,
        0.40012434207784314,
        0.38779793988668965,
        0.23745684172576773,
        0.3459491229782049,
        0.058761117148821033,
        0.33502057453813283,
        -0.5164552420237918,
        -0.3549819201559748,
        -0.5128279534164152,
        -0.09504765558053684,
        -0.1666759422043203,
        -0.22152506538498973,
        0.1428663866821301,
        -0.02306501185268987
      ],
      [
        -0.3648377911180748,
        -0.046339561872113966,
        -0.29470013287136515,
        0.34165652585803313,
        -0.22496284108697173,
        0.49914273928841735,
        0.21990519701711847,
        -0.3132735919208967,
        -0.4943078624106552,
        0.3397260311101578,
        0.2522658404696454,
        0.22780839820566423,
        0.3116045002119609,
        -0.4423428147788425,
        -0.022369119453531122,
        -0.18896270170906612
      ],
      [
        0.4058293232582973,
        0.083695951845848,
        -0.1201806132976443,
        -0.5470128563683753,
        -0.04524952802525697,
        -0.13312859739140775,
        0.2857600026845339,
        0.20599421303242452,
        0.4639583505074419,
        0.04703428578915701,
        -0.4191223521379159,
        0.16045140652678203,
        0.35227075380337114,
        0.05721133791303512,
        0.09843514409606482,
        -1.1654523266239379e-05
      ]
    ],
    [
      [
        0.5846302456143984,
        0.46313729934155917,
        -0.02309854708530557,
        0.5173516515728234,
        0.11313819840640185,
        -0.24213355431247238,
        0.2316950862803843,
        0.18738925539477355
      ],
      [
        0.25629342376922293,
        0.3451027062628096,
        -0.12832512678020938,
        -0.2764545526494024,
        -0.0908885173415996,
        0.00661595674760584,
        0.37767622449985333,
        0.3161082549211256
      ],
      [
        -0.4211576128064064,
        0.081236197214835,
        -0.1554784900058942,
        -0.2708537218688441,
        -0.1718465375021797,
        -0.21780583049114963,
        0.3646029122722356,
        -0.11358495535470055
      ],
      [
        0.12066742158415639,
        0.3042549011955757,
        -0.23983126508596891,
        0.37672776881129244,
        0.2403728734094639,
        -0.34959183464463356,
        -0.061316815094484466,
        -0.1069688078844696
      ],
      [
        -0.05503816311511733,
        -0.24094362162642893,
        0.010096811387257081,
        3.3453154243831808e-06,
        -0.2284876055162846,
        -0.05862843386760085,
        0.19476416729635335,
        -0.08308293107163979
      ],
      [
        -0.3039057073627129,
        0.04180649426260136,
        0.4297833313886024,
        -0.3022407533536416,
        0.03268922454576553,
        0.206728029824273,
        -0.2963068803635785,
        0.26898301112505824
      ],
      [
        -0.2480875759213655,
        0.01642166177995191,
        0.2517808130401082,
        0.17806114855106742,
        -0.19595627768956855,
        0.49081082273116644,
        -0.07883496269047092,
        -0.41906676097326495
      ],
      [
        -0.4145868356411991,
        0.13696599463755668,
        0.12685582883206145,
        -0.4610148178403826,
        3.486757949592907e-05,
        -0.3035675310816835,
        0.09696888654697752,
        -0.29674698409408956
      ],
      [
        0.14425080918478198,
        -0.15981736088402906,
        0.4848969601413093,
        -0.2398243401742511,
        -0.02685657885317901,
        -0.3011519058187024,
        0.47557854125568394,
        0.3345447017211909
      ],
      [
        -0.2732181466433988,
        0.12894806494962394,
        0.3474785471223075,
        -0.058240444325667724,
        0.0002633860081031535,
        -0.26172650634586125,
        -0.3436336501509854,
        0.3629974435176116
      ],
      [
        0.4147007608758458,
        0.14791826908640585,
        -0.17977906687763617,
        -0.19578939462310035,
        0.061350267391987005,
        0.3478019393609844,
        0.13581719625394342,
        0.27594840889179933
      ],
      [
        0.09361027062019489,
        -0.46412344858344373,
        -0.2878003921543182,
        0.49702335264888353,
        0.009320693667566767,
        -0.4193047010083484,
        -0.3398807851847945,
        0.12065399232720798
      ],
      [
        -0.4847106597320365,
        -0.3286790876252666,
        0.0354167903619501,
        0.07111648014978615,
        0.023993146250752453,
        -0.29245050776203163,
        0.19307758799573999,
        -0.2661500524917879
      ],
      [
        -0.17759156733615206,
        0.24213118997138722,
        0.14975988702971477,
        0.14740658090991463,
        0.026302384732786146,
        0.13794775572881304,
        -0.40312211596525205,
        -0.13845921907839606
      ],
      [
        -0.06670421032823069,
        -0.08016964495704648,
        0.24945500102481524,
        -0.009435568853733362,
        0.18147856769541615,
        0.01639029700439447,
        0.10675965045056328,
        3.2789463904760126e-06
      ],
      [
        0.0037234351258856567,
        -1.4718289634453518e-05,
        -0.11392624429934384,
        0.05927402394826334,
        -0.057386609383085166,
        -0.2517623421411158,
        0.021468655198300705,
        -0.12731108772661864
      ]
    ],
    [
      [
        0.7072380737345282
      ],
      [
        0.5364643311565884
      ],
      [
        -0.38159711476415015
      ],
      [
        -0.30172526046478315
      ],
      [
        0.3381259751794782
      ],
      [
        -0.38130232507739603
      ],
      [
        -0.5631349631762205
      ],
      [
        0.04456487217522414
      ]
    ]
  ],
  "biases": [
    [
      0.13390367001697775,
      -0.12352220010689186,
      -0.5754392347224682,
      -0.3246786583047815,
      -0.4894062540294351,
      0.10584814159976282,
      -0.019536644955222466,
      0.05595897878865157,
      0.4785218011621991,
      -0.2351602853612868,
      -0.04931973467775097,
      0.21159719577692923,
      -0.22694916023793302,
      -0.4490276827940484,
      -0.21959744546917453,
      -0.3538428252150696
    ],
    [
      0.39360838003228604,
      0.4072359810450763,
      0.46357632518779546,
      -0.03488200036402272,
      -0.48454338347113257,
      0.49704705169881996,
      -0.014942904259083048,
      0.4246821055915159
    ],
    [
      0.6648261596993674
    ]
  ],
  "training_metrics": {
    "train_mae": 0.01295271650360292,
    "test_mae": 0.011224448859186019,
    "train_mse": 0.000641741580473461,
    "test_mse": 0.0003184345979871649,
    "train_r2": 0.88130476770603,
    "test_r2": 0.9391784290751803,
    "num_iterations": 23,
    "num_samples": 3240
  },
  "version": "v2.2-optionB-canonical",
  "status": "ACTIVE"
}