{
  "architecture": {
    "input_size": 6,
    "hidden_layers": [
      16,
      8
    ],
    "output_size": 1,
    "activation": "relu",
    "output_activation": "linear"
  },
  "feature_order": [
    "soft_combat",
    "soft_collect",
    "soft_explore",
    "delta_combat",
    "delta_collect",
    "delta_explore"
  ],
  "weights": [
    [
      [
        -0.012053120480305053,
        0.4594674762831875,
        0.16105836764952694,
        0.2098546974300515,
        -0.16985233630113578,
        -0.4227451169263586,
        -0.23155096536238864,
        0.3489737591345004,
        0.06385353697269612,
        0.22842614023364347,
        -0.43432610832848356,
        0.5041481759582809,
        0.39748461492777576,
        -0.2962963781626505,
        -0.14825883095570347,
        -0.14695841781834715
      ],
      [
        -0.06422040172665053,
        -0.009102155743259585,
        -0.1466229749934521,
        -0.10112929068712852,
        0.015922322956330528,
        -0.41006420717375763,
        -0.006025111364749899,
        -0.11050461640662108,
        -0.012678891065212703,
        0.29883354935877976,
        -0.2699183722639434,
        -0.023290244447255855,
        0.14772366008406437,
        -0.47037501267896004,
        0.014442302689210668,
        -0.1576364634908154
      ],
      [
        -0.37338303587165567,
        0.41415774999044985,
        0.4422241592125949,
        0.24598803452512133,
        -0.057622403820633016,
        -0.43754813353445526,
        0.35028191100574924,
        -0.006298937109139946,
        -0.3320789051197223,
        0.024451593213234056,
        -0.41509513484120775,
        0.36909222541182896,
        -0.1619472700947289,
        0.16285355213668254,
        -0.05325939240048502,
        0.00022907647632799656
      ],
      [
        0.20550388562638358,
        -0.2694722394852419,
        0.40891070461841583,
        0.38649220300836723,
        0.2542400758953785,
        0.3480568846454542,
        0.029504585472387008,
        0.3518667397898755,
        -0.5118706633642904,
        -0.3497138727118828,
        -0.5245004221785594,
        -0.1036345274345963,
        -0.16540986343737732,
        -0.2221496659642734,
        0.15701990194907017,
        -0.028878080488484045
      ],
      [
        -0.356076214609688,
        -0.03411574802101355,
        -0.2895451301892319,
        0.3561387666687839,
        -0.24147337373106204,
        0.485226641869533,
        0.18730339698546775,
        -0.3079156582813127,
        -0.4844465799220247,
        0.3226962767892391,
        0.25320189855488934,
        0.22080963755331343,
        0.30759227984493714,
        -0.44317335971772526,
        -0.028078054704496647,
        -0.2045789103564994
      ],
      [
        0.3887903826996188,
        0.07620117633653531,
        -0.11850947495131424,
        -0.5508203560026919,
        -0.053701519440547636,
        -0.1269555872540889,
        0.31945827843364416,
        0.19989439856590907,
        0.4622469271901497,
        0.06085350158635137,
        -0.38477875355522867,
        0.16445851277169443,
        0.3558443205470923,
        0.057869932385529683,
        0.11064083092520867,
        -2.8291836373685594e-05
      ]
    ],
    [
      [
        0.5713707040320528,
        0.4499987842632666,
        -0.009401805639148254,
        0.3466114049670654,
        0.12606724474628614,
        -0.3026924338345119,
        0.24611502328153848,
        0.17593376841210068
      ],
      [
        0.2585680294117545,
        0.3473196725519701,
        -0.13088799284894184,
        -0.289755602273288,
        -0.10268418952953894,
        0.003230804736862675,
        0.37058261188326413,
        0.3176906968746497
      ],
      [
        -0.431340516678642,
        0.07209895102871809,
        -0.14608158371190214,
        -0.2819148777010248,
        -0.18696874761282808,
        -0.20579932569787399,
        0.3762033084740143,
        -0.12155703585609591
      ],
      [
        0.11071018759959275,
        0.29503062711966505,
        -0.23018013409072927,
        0.3894942392808252,
        0.2572173421407085,
        -0.3355840005080239,
        -0.053957249658476876,
        -0.11344791870751171
      ],
      [
        -0.06437524186467847,
        -0.2577999733052522,
        0.013571031841508851,
        8.651709904034607e-06,
        -0.24507682399920852,
        -0.06826116422194053,
        0.21053681259076346,
        -0.09442200757308548
      ],
      [
        -0.30195461429160286,
        0.04308873985136214,
        0.43029169551408253,
        -0.29749744828119445,
        0.03978572265253515,
        0.20858537694251444,
        -0.2737638434979721,
        0.2769081266145963
      ],
      [
        -0.25032612433491613,
        0.014066570512951928,
        0.2535684437102463,
        0.2278893405535099,
        -0.21176043003849498,
        0.4887737899425981,
        -0.0889350130521655,
        -0.4227912344308794
      ],
      [
        -0.38744753407730737,
        0.1628876016258772,
        0.10345425381608958,
        -0.5750955529783514,
        7.825694452152544e-05,
        -0.3543771602337145,
        0.07748610121174224,
        -0.26274559003976156
      ],
      [
        0.149094044129977,
        -0.15500667950536426,
        0.47974280884579196,
        -0.26522567766071903,
        -0.03320761859793072,
        -0.3127020442474579,
        0.46766334023108797,
        0.3384954883236826
      ],
      [
        -0.2660114583387706,
        0.13622288970087357,
        0.34010590653671485,
        -0.06708226475179643,
        0.0004959288640723877,
        -0.3090815875359671,
        -0.3357577869325032,
        0.3695086324506764
      ],
      [
        0.413805371054396,
        0.14723615511165017,
        -0.17802856605040854,
        -0.1561783787249813,
        0.07119813529905111,
        0.38622010531026585,
        0.16620346144860274,
        0.2766375381886403
      ],
      [
        0.09880803287686503,
        -0.45899191882023976,
        -0.293523385029927,
        0.46502350140094467,
        0.012617031638913492,
        -0.42768239348089726,
        -0.3511529346722161,
        0.12441460588680348
      ],
      [
        -0.47453500736934173,
        -0.31829309463679617,
        0.025402426477305375,
        0.07494719825335495,
        0.029942364378451627,
        -0.2550580738606862,
        0.18307309019894843,
        -0.2550649425962683
      ],
      [
        -0.1761438212348755,
        0.24356615028112952,
        0.14855517357806403,
        0.16172457225084014,
        0.03257768666770646,
        0.07683859918208963,
        -0.4041786730532213,
        -0.1364322484551038
      ],
      [
        -0.07695461640403811,
        -0.09132888641523129,
        0.2664847055678789,
        -0.012758640094743187,
        0.19688499714198454,
        0.02112005716630452,
        0.11938615213410914,
        8.486479351961546e-06
      ],
      [
        0.005477730937302199,
        -3.519129231746094e-05,
        -0.12689155983067849,
        0.06895846065154008,
        -0.06691865582724245,
        -0.2688378323159412,
        0.027040109540491783,
        -0.140858580689136
      ]
    ],
    [
      [
        0.7131022248731618
      ],
      [
        0.5447190313177884
      ],
      [
        -0.37209657606749647
      ],
      [
        -0.22002623683719813
      ],
      [
        0.3566187908526142
      ],
      [
        -0.3595806602030921
      ],
      [
        -0.5582951492807895
      ],
      [
        0.050256551511734616
      ]
    ]
  ],
  "biases": [
    [
      0.13356810135017685,
      -0.11844622405550631,
      -0.5772053265082431,
      -0.3094465831696324,
      -0.4894062540294351,
      0.0928332416773381,
      -0.02158989797706655,
      0.04365991492400187,
      0.46255573532047345,
      -0.2522269493792064,
      -0.04666800637497528,
      0.22162178126286014,
      -0.22034354539683734,
      -0.4483379552193782,
      -0.21959744546917453,
      -0.3538428252150696
    ],
    [
      0.40131390990000076,
      0.4148679987818183,
      0.45512828969424923,
      -0.07761951157386113,
      -0.48454338347113257,
      0.4847750836579718,
      -0.03133987888282341,
      0.43029838340015
    ],
    [
      0.6727420496695724
    ]
  ],
  "training_metrics": {
    "train_mae": 0.013926157357563959,
    "test_mae": 0.012704779751944027,
    "train_mse": 0.0007729149867484851,
    "test_mse": 0.00038544919104036593,
    "train_r2": 0.8599571583746454,
    "test_r2": 0.9263848891272097,
    "num_iterations": 21,
    "num_samples": 3240
  },
  "mlp_neutral": 0.932,
  "version": "v2.2-optionB-canonical",
  "status": "ACTIVE"
}