{
  "architecture": {
    "input_size": 6,
    "hidden_layers": [
      16,
      8
    ],
    "output_size": 1,
    "activation": "relu",
    "output_activation": "linear"
  },
  "feature_order": [
    "soft_combat",
    "soft_collect",
    "soft_explore",
    "delta_combat",
    "delta_collect",
    "delta_explore"
  ],
  "weights": [
    [
      [
        0.00725186892616073,
        0.4400052336899191,
        0.14834481719493298,
        0.2213555520806902,
        -0.15526162648140274,
        -0.4176914292606263,
        -0.23574461985173834,
        0.3631773604122439,
        0.05757398473689708,
        0.24133531002939085,
        -0.3654577066838777,
        0.4871771511644931,
        0.3764977269390735,
        -0.3050582581106218,
        -0.13442556021559238,
        -0.13317431417757064
      ],
      [
        -0.07493974243799172,
        -0.02003760169273,
        -0.14351200835377806,
        -0.10847239876197604,
        0.012030228398612676,
        -0.3842568805757433,
        -0.013475832653003545,
        -0.09118925205531361,
        0.009944495735197642,
        0.32164429449800597,
        -0.24316289334111782,
        -0.03713668285506121,
        0.14759359030329589,
        -0.48257551044084723,
        0.010809981434844238,
        -0.14346110493668277
      ],
      [
        -0.3730276235819808,
        0.4148541943353276,
        0.47467192899191674,
        0.26426226690411014,
        -0.04883185977272031,
        -0.4024806607409444,
        0.3579955872324062,
        0.001857152755354581,
        -0.31932850027922927,
        0.04218459416416003,
        -0.35644039936372307,
        0.3626691537706763,
        -0.16850647285637724,
        0.15010074071057294,
        -0.0448466406226982,
        0.00011267102469779328
      ],
      [
        0.22196412487953773,
        -0.27100670497613727,
        0.3965837140883679,
        0.40033408149929856,
        0.23745684172576773,
        0.34614503262506824,
        0.04876381085704831,
        0.3322009564494162,
        -0.5187757013793138,
        -0.3567752923954251,
        -0.5645111290909971,
        -0.08805352540255344,
        -0.17051853222135996,
        -0.21932361515070314,
        0.1428663866821301,
        -0.02306501185268987
      ],
      [
        -0.345354617939683,
        -0.053577954459417945,
        -0.28561967718439113,
        0.3148312670978859,
        -0.22496284108697173,
        0.5084716383393326,
        0.2775719299227983,
        -0.3219170641026629,
        -0.5049205555141666,
        0.342495388903926,
        0.27050468314643417,
        0.23464954610814176,
        0.31488515372944637,
        -0.42417556736338524,
        -0.022369119453531122,
        -0.18896270170906612
      ],
      [
        0.4050586358313823,
        0.09104510986752096,
        -0.1097571915535821,
        -0.5514168125621014,
        -0.04524952802525697,
        -0.1445904544889629,
        0.26906188122368474,
        0.19579222792953976,
        0.45695866586766537,
        0.04043285140481561,
        -0.3905633677006941,
        0.1623045397470985,
        0.35324709975879043,
        0.0443391254631651,
        0.09843514409606482,
        -1.1654523266239379e-05
      ]
    ],
    [
      [
        0.5709373924413091,
        0.45430779759950857,
        -0.014964014359669072,
        0.5434524879252834,
        0.11313819840640185,
        -0.218175999128659,
        0.2370851780830878,
        0.17832276519031767
      ],
      [
        0.25699568959497215,
        0.34583082214709565,
        -0.12911389672552612,
        -0.280589161607266,
        -0.0908885173415996,
        -0.00046930252269665815,
        0.3793566204004491,
        0.3165582586456944
      ],
      [
        -0.4210826859513277,
        0.08215339785418814,
        -0.15650087845838398,
        -0.2891749735882002,
        -0.1718465375021797,
        -0.2270852537081253,
        0.36939326888376967,
        -0.11270916588401816
      ],
      [
        0.1164183223180302,
        0.2997424741891471,
        -0.2349057882742811,
        0.41030122806156266,
        0.2403728734094639,
        -0.3429566336255701,
        -0.09538868076735176,
        -0.10880150984272444
      ],
      [
        -0.05503816311511733,
        -0.24094362162642893,
        0.010096811387257081,
        3.3453154243831808e-06,
        -0.2284876055162846,
        -0.05862843386760085,
        0.19476416729635335,
        -0.08308293107163979
      ],
      [
        -0.3103712533276015,
        0.03665923039380324,
        0.43522191258882614,
        -0.2926134453499573,
        0.03268922454576553,
        0.21186295241237404,
        -0.3085518728723131,
        0.26448843492433144
      ],
      [
        -0.2555072086805927,
        0.008974122139879446,
        0.25914377285582535,
        0.19469962440647445,
        -0.19595627768956855,
        0.48967729822919986,
        -0.07328582662673831,
        -0.42551286972943775
      ],
      [
        -0.42026790390476576,
        0.1331408015755612,
        0.13047457892153488,
        -0.42217267314710183,
        3.486757949592907e-05,
        -0.3130668976174597,
        0.09870795396912316,
        -0.3015231894167813
      ],
      [
        0.1444654529925302,
        -0.1595451467246323,
        0.4844644537675849,
        -0.22796263217695362,
        -0.02685657885317901,
        -0.3083747699530897,
        0.4736130947076362,
        0.33439270320465403
      ],
      [
        -0.27290845373559464,
        0.1291955822484565,
        0.3471015159626648,
        -0.032549992105011714,
        0.0002633860081031535,
        -0.26078493572889305,
        -0.3440332100542259,
        0.36324770971209014
      ],
      [
        0.39948257396021175,
        0.13323698826086408,
        -0.16438079722732463,
        -0.16934642594126983,
        0.061350267391987005,
        0.36690843932700107,
        0.14902367487139348,
        0.2512010594336444
      ],
      [
        0.09347481147571786,
        -0.4642021768387094,
        -0.2877426379682947,
        0.4900627573981681,
        0.009320693667566767,
        -0.42522679147796894,
        -0.33711208743535487,
        0.1204286393424849
      ],
      [
        -0.48667831096573466,
        -0.3307495020129987,
        0.03821356055928935,
        0.08595443113687741,
        0.023993146250752453,
        -0.3066089641215467,
        0.19312996095846555,
        -0.2656042041540626
      ],
      [
        -0.18797840527690954,
        0.22893861921127595,
        0.1616193750465193,
        0.14740658090991463,
        0.026302384732786146,
        0.002649113267653514,
        -0.38667940968303643,
        -0.1365776417490353
      ],
      [
        -0.06670421032823069,
        -0.08016964495704648,
        0.24945500102481524,
        -0.009435568853733362,
        0.18147856769541615,
        0.01639029700439447,
        0.10675965045056328,
        3.2789463904760126e-06
      ],
      [
        0.0037234351258856567,
        -1.4718289634453518e-05,
        -0.11392624429934384,
        0.05927402394826334,
        -0.057386609383085166,
        -0.2517623421411158,
        0.021468655198300705,
        -0.12731108772661864
      ]
    ],
    [
      [
        0.7073382215371161
      ],
      [
        0.5345447079426326
      ],
      [
        -0.3820401219884884
      ],
      [
        -0.2890276155256276
      ],
      [
        0.3381259751794782
      ],
      [
        -0.3703393332202466
      ],
      [
        -0.5561086336061354
      ],
      [
        0.0446156619242245
      ]
    ]
  ],
  "biases": [
    [
      0.1399765307885273,
      -0.12433309841263862,
      -0.5834419220025191,
      -0.3123672256933474,
      -0.4894062540294351,
      0.11937723603693594,
      -0.015824450430847428,
      0.060398826997612585,
      0.48206709656886537,
      -0.2318822858259238,
      -0.013393580397555236,
      0.2119428976060673,
      -0.22550714820958173,
      -0.4613566092894857,
      -0.21959744546917453,
      -0.3538428252150696
    ],
    [
      0.39314698635473433,
      0.40685360024265504,
      0.4639269271706253,
      -0.04362978867938275,
      -0.48454338347113257,
      0.49143539367367045,
      -0.012297222577161539,
      0.42414684673041175
    ],
    [
      0.6644513645905484
    ]
  ],
  "training_metrics": {
    "train_mae": 0.012672922396498516,
    "test_mae": 0.01081852004202957,
    "train_mse": 0.000705523223243583,
    "test_mse": 0.0002909725632668364,
    "train_r2": 0.8368863347994567,
    "test_r2": 0.9224446875390563,
    "num_iterations": 23,
    "num_samples": 3240
  },
  "version": "v2.2-optionB-canonical",
  "status": "ACTIVE"
}