{
  "architecture": {
    "input_size": 6,
    "hidden_layers": [
      16,
      8
    ],
    "output_size": 1,
    "activation": "relu",
    "output_activation": "linear"
  },
  "feature_order": [
    "soft_combat",
    "soft_collect",
    "soft_explore",
    "delta_combat",
    "delta_collect",
    "delta_explore"
  ],
  "weights": [
    [
      [
        -0.033358020511811984,
        0.4565263691132606,
        0.1645285613766609,
        0.20097387486579868,
        -0.16985233630113578,
        -0.43077934989878414,
        -0.24610891972541726,
        0.35704395425065605,
        0.06260262334952234,
        0.24575524512347802,
        -0.3990128996346764,
        0.5054011500730826,
        0.39735595451753536,
        -0.2660265885409601,
        -0.14825883095570347,
        -0.14695841781834715
      ],
      [
        -0.052676055877755666,
        -0.010218744682778873,
        -0.14307807382607196,
        -0.09484280977448908,
        0.015922322956330528,
        -0.4216363182503714,
        -0.01014215479704202,
        -0.10541782651983055,
        -0.0013467927304048216,
        0.32473945902016116,
        -0.25401791330226225,
        -0.03357400844480426,
        0.14557706514515495,
        -0.429638325789551,
        0.014442302689210668,
        -0.1576364634908154
      ],
      [
        -0.32247247081786806,
        0.4130733493130062,
        0.41426352132343514,
        0.2824001716071251,
        -0.057622403820633016,
        -0.4574717354114075,
        0.3544879657731682,
        -0.004997912247605114,
        -0.3259287433155399,
        0.04114641924530201,
        -0.36368270762249216,
        0.3638643143157324,
        -0.1796189950723144,
        0.1584175544835887,
        -0.05325939240048502,
        0.00022907647632799656
      ],
      [
        0.16073660059305997,
        -0.2747721515161379,
        0.41199335897352707,
        0.3857114856388203,
        0.2542400758953785,
        0.3428871934858344,
        0.028415599026360323,
        0.35936397944049414,
        -0.51074942701438,
        -0.3569657207387957,
        -0.536216359983437,
        -0.10124745347999559,
        -0.16022731946834867,
        -0.2248876875545815,
        0.15701990194907017,
        -0.028878080488484045
      ],
      [
        -0.3520332507588076,
        -0.007744067083730771,
        -0.2936175821048226,
        0.2547210673070998,
        -0.24147337373106204,
        0.47228852294529755,
        0.15279270517162477,
        -0.2537049572446835,
        -0.44270534140357076,
        0.35174468910133017,
        0.27299347146064523,
        0.1741846645450593,
        0.3172510989671782,
        -0.4317117847352418,
        -0.028078054704496647,
        -0.2045789103564994
      ],
      [
        0.3154383138617136,
        0.07302154122992843,
        -0.10514844461650395,
        -0.5484666327167159,
        -0.053701519440547636,
        -0.10452358210829274,
        0.33063797522318383,
        0.203161124594555,
        0.472444737763949,
        0.056725735573256386,
        -0.3250775968859205,
        0.15640363089833353,
        0.3377029003695481,
        0.05320070542133243,
        0.11064083092520867,
        -2.8291836373685594e-05
      ]
    ],
    [
      [
        0.568276777976168,
        0.44699039883303177,
        -0.00600398587865163,
        0.28542297694312546,
        0.12606724474628614,
        -0.3195708186054088,
        0.24331863802242473,
        0.17375664008123184
      ],
      [
        0.2599934407908759,
        0.34868784454033824,
        -0.13238034021016837,
        -0.27912281643646714,
        -0.10268418952953894,
        0.014179622652184948,
        0.3717870139480756,
        0.31895691660203757
      ],
      [
        -0.4324809581481367,
        0.07055072571897165,
        -0.1445550380785478,
        -0.34193003406762174,
        -0.18696874761282808,
        -0.20230775285876967,
        0.3808536640190161,
        -0.12327182543008182
      ],
      [
        0.09860639207799436,
        0.28093232718856526,
        -0.2157093863592456,
        0.4059021528958233,
        0.2572173421407085,
        -0.3301718400375641,
        -0.10940032231844712,
        -0.125989862808196
      ],
      [
        -0.06437524186467847,
        -0.2577999733052522,
        0.013571031841508851,
        8.651709904034607e-06,
        -0.24507682399920852,
        -0.06826116422194053,
        0.21053681259076346,
        -0.09442200757308548
      ],
      [
        -0.2918691672504922,
        0.05184672953077669,
        0.42131921744809436,
        -0.2908178690630008,
        0.03978572265253515,
        0.19966398399455984,
        -0.26736052854855985,
        0.2841900183012798
      ],
      [
        -0.2620426612473643,
        0.002278943995273864,
        0.2647222183432857,
        0.2265180277451753,
        -0.21176043003849498,
        0.4868249503539612,
        -0.08680366906762721,
        -0.4364226417455524
      ],
      [
        -0.39656300676014533,
        0.15463663713942083,
        0.11217879056323213,
        -0.529135070753061,
        7.825694452152544e-05,
        -0.3051798933811899,
        0.06622248147481816,
        -0.2681741654150014
      ],
      [
        0.148767748438672,
        -0.15535906622860707,
        0.480283527824616,
        -0.29061459011312735,
        -0.03320761859793072,
        -0.30712406310371226,
        0.4723104427943213,
        0.3387534863325903
      ],
      [
        -0.27625805636927,
        0.12602239950645583,
        0.3512417212433254,
        -0.023112534693275878,
        0.0004959288640723877,
        -0.24295986311267903,
        -0.3473702681251098,
        0.3619823133079644
      ],
      [
        0.44319102298165974,
        0.1771376105779169,
        -0.20945795929007777,
        -0.14178782646802068,
        0.07119813529905111,
        0.25729291346398026,
        0.1313903248987988,
        0.29324196063929303
      ],
      [
        0.10018577555097265,
        -0.45765682114707446,
        -0.2949356028500916,
        0.4467885623116288,
        0.012617031638913492,
        -0.4189483617633329,
        -0.3534529538003114,
        0.1257333820943999
      ],
      [
        -0.5014776814324317,
        -0.34515492587959884,
        0.052988495999418676,
        0.17439514636172077,
        0.029942364378451627,
        -0.16483969782100846,
        0.17672820988628368,
        -0.2783134023274293
      ],
      [
        -0.18055557042930445,
        0.2338552944696816,
        0.15384587628281887,
        0.16172457225084014,
        0.03257768666770646,
        -0.010747532704917512,
        -0.39060989954725434,
        -0.12725004922579158
      ],
      [
        -0.07695461640403811,
        -0.09132888641523129,
        0.2664847055678789,
        -0.012758640094743187,
        0.19688499714198454,
        0.02112005716630452,
        0.11938615213410914,
        8.486479351961546e-06
      ],
      [
        0.005477730937302199,
        -3.519129231746094e-05,
        -0.12689155983067849,
        0.06895846065154008,
        -0.06691865582724245,
        -0.2688378323159412,
        0.027040109540491783,
        -0.140858580689136
      ]
    ],
    [
      [
        0.7132942418853037
      ],
      [
        0.5467410198309417
      ],
      [
        -0.37218430261908875
      ],
      [
        -0.17983146910978984
      ],
      [
        0.3566187908526142
      ],
      [
        -0.3613355941983435
      ],
      [
        -0.5244220253497656
      ],
      [
        0.050685399182955004
      ]
    ]
  ],
  "biases": [
    [
      0.1332697926654978,
      -0.11572125947412609,
      -0.5723574696639013,
      -0.3135792775436771,
      -0.4894062540294351,
      0.07010894702907858,
      -0.02157065939836056,
      0.03320445633621433,
      0.45740375501031044,
      -0.22992902472091806,
      -0.023371045991581806,
      0.21903938426961733,
      -0.22803093629810345,
      -0.45233356759172916,
      -0.21959744546917453,
      -0.3538428252150696
    ],
    [
      0.4022392457884866,
      0.41577099436586806,
      0.45425386427266135,
      -0.104527150644046,
      -0.48454338347113257,
      0.49245972800330157,
      -0.03619074310767485,
      0.4314266024432809
    ],
    [
      0.673649396389907
    ]
  ],
  "training_metrics": {
    "train_mae": 0.014429763188476276,
    "test_mae": 0.012322392458896903,
    "train_mse": 0.0008033188910981066,
    "test_mse": 0.0003516765059627752,
    "train_r2": 0.8631026529092365,
    "test_r2": 0.9350175595236446,
    "num_iterations": 21,
    "num_samples": 3240
  },
  "mlp_neutral": 0.931601,
  "version": "v2.2-optionB-canonical",
  "status": "ACTIVE"
}