{
  "architecture": {
    "input_size": 6,
    "hidden_layers": [
      16,
      8
    ],
    "output_size": 1,
    "activation": "relu",
    "output_activation": "linear"
  },
  "feature_order": [
    "soft_combat",
    "soft_collect",
    "soft_explore",
    "delta_combat",
    "delta_collect",
    "delta_explore"
  ],
  "weights": [
    [
      [
        -0.012053120480305423,
        0.45946747628318746,
        0.161058367649527,
        0.2098546974300514,
        -0.16985233630113578,
        -0.42274511692635874,
        -0.2315509653623885,
        0.3489737591345004,
        0.06385353697269597,
        0.22842614023364344,
        -0.4343261083284841,
        0.5041481759582812,
        0.3974846149277755,
        -0.2962963781626504,
        -0.14825883095570347,
        -0.14695841781834715
      ],
      [
        -0.06422040172665042,
        -0.009102155743259573,
        -0.1466229749934519,
        -0.10112929068712855,
        0.015922322956330528,
        -0.4100642071737574,
        -0.006025111364750177,
        -0.11050461640662095,
        -0.012678891065212713,
        0.29883354935877976,
        -0.2699183722639435,
        -0.023290244447255762,
        0.14772366008406432,
        -0.47037501267896026,
        0.014442302689210668,
        -0.1576364634908154
      ],
      [
        -0.3733830358716552,
        0.4141577499904498,
        0.44222415921259495,
        0.24598803452512116,
        -0.057622403820633016,
        -0.437548133534455,
        0.35028191100574957,
        -0.006298937109139951,
        -0.33207890511972243,
        0.024451593213233855,
        -0.4150951348412084,
        0.36909222541182896,
        -0.1619472700947289,
        0.16285355213668293,
        -0.05325939240048502,
        0.00022907647632799656
      ],
      [
        0.2055038856263832,
        -0.26947223948524185,
        0.4089107046184158,
        0.38649220300836706,
        0.2542400758953785,
        0.34805688464545426,
        0.029504585472386418,
        0.35186673978987565,
        -0.5118706633642903,
        -0.34971387271188265,
        -0.524500422178559,
        -0.10363452743459628,
        -0.16540986343737712,
        -0.22214966596427366,
        0.15701990194907017,
        -0.028878080488484045
      ],
      [
        -0.35607621460968797,
        -0.03411574802101316,
        -0.28954513018923206,
        0.35613876666878413,
        -0.24147337373106204,
        0.4852266418695332,
        0.1873033969854664,
        -0.3079156582813125,
        -0.4844465799220249,
        0.3226962767892391,
        0.2532018985548893,
        0.2208096375533131,
        0.3075922798449371,
        -0.44317335971772576,
        -0.028078054704496647,
        -0.2045789103564994
      ],
      [
        0.38879038269961835,
        0.0762011763365352,
        -0.11850947495131413,
        -0.5508203560026919,
        -0.053701519440547636,
        -0.12695558725408887,
        0.3194582784336448,
        0.1998943985659091,
        0.4622469271901496,
        0.06085350158635121,
        -0.38477875355522817,
        0.16445851277169432,
        0.3558443205470921,
        0.05786993238553019,
        0.11064083092520867,
        -2.8291836373685594e-05
      ]
    ],
    [
      [
        0.5713707040320538,
        0.44999878426326745,
        -0.009401805639148756,
        0.34661140496706316,
        0.12606724474628614,
        -0.3026924338345116,
        0.2461150232815379,
        0.17593376841210134
      ],
      [
        0.25856802941175444,
        0.34731967255197005,
        -0.13088799284894181,
        -0.2897556022732881,
        -0.10268418952953894,
        0.0032308047368628055,
        0.3705826118832642,
        0.3176906968746497
      ],
      [
        -0.43134051667864176,
        0.07209895102871848,
        -0.14608158371190264,
        -0.2819148777010271,
        -0.18696874761282808,
        -0.20579932569787412,
        0.37620330847401384,
        -0.12155703585609577
      ],
      [
        0.11071018759959299,
        0.29503062711966505,
        -0.2301801340907295,
        0.3894942392808241,
        0.2572173421407085,
        -0.33558400050802406,
        -0.0539572496584767,
        -0.1134479187075116
      ],
      [
        -0.06437524186467847,
        -0.2577999733052522,
        0.013571031841508851,
        8.651709904034607e-06,
        -0.24507682399920852,
        -0.06826116422194053,
        0.21053681259076346,
        -0.09442200757308548
      ],
      [
        -0.30195461429160286,
        0.04308873985136228,
        0.43029169551408236,
        -0.2974974482811945,
        0.03978572265253515,
        0.20858537694251442,
        -0.27376384349797256,
        0.27690812661459646
      ],
      [
        -0.25032612433491686,
        0.014066570512951515,
        0.2535684437102467,
        0.22788934055350976,
        -0.21176043003849498,
        0.48877378994259085,
        -0.08893501305216524,
        -0.4227912344308796
      ],
      [
        -0.3874475340773074,
        0.16288760162587745,
        0.10345425381608946,
        -0.5750955529783505,
        7.825694452152544e-05,
        -0.3543771602337143,
        0.0774861012117421,
        -0.26274559003976095
      ],
      [
        0.14909404412997707,
        -0.15500667950536431,
        0.47974280884579196,
        -0.26522567766071936,
        -0.03320761859793072,
        -0.31270204424745773,
        0.46766334023108797,
        0.33849548832368254
      ],
      [
        -0.2660114583387706,
        0.13622288970087362,
        0.34010590653671474,
        -0.06708226475179647,
        0.0004959288640723877,
        -0.30908158753596693,
        -0.3357577869325038,
        0.36950863245067656
      ],
      [
        0.4138053710543959,
        0.14723615511165028,
        -0.17802856605040884,
        -0.15617837872498233,
        0.07119813529905111,
        0.3862201053102663,
        0.1662034614486025,
        0.2766375381886404
      ],
      [
        0.098808032876865,
        -0.4589919188202398,
        -0.293523385029927,
        0.46502350140094484,
        0.012617031638913492,
        -0.42768239348089715,
        -0.35115293467221614,
        0.12441460588680346
      ],
      [
        -0.4745350073693414,
        -0.31829309463679606,
        0.025402426477305187,
        0.0749471982533548,
        0.029942364378451627,
        -0.25505807386068396,
        0.18307309019894705,
        -0.255064942596268
      ],
      [
        -0.17614382123487457,
        0.24356615028113054,
        0.148555173578063,
        0.16172457225084014,
        0.03257768666770646,
        0.07683859918208263,
        -0.40417867305322136,
        -0.13643224845510257
      ],
      [
        -0.07695461640403811,
        -0.09132888641523129,
        0.2664847055678789,
        -0.012758640094743187,
        0.19688499714198454,
        0.02112005716630452,
        0.11938615213410914,
        8.486479351961546e-06
      ],
      [
        0.005477730937302199,
        -3.519129231746094e-05,
        -0.12689155983067849,
        0.06895846065154008,
        -0.06691865582724245,
        -0.2688378323159412,
        0.027040109540491783,
        -0.140858580689136
      ]
    ],
    [
      [
        0.7131022248731618
      ],
      [
        0.5447190313177884
      ],
      [
        -0.37209657606749647
      ],
      [
        -0.22002623683719763
      ],
      [
        0.3566187908526142
      ],
      [
        -0.35958066020309215
      ],
      [
        -0.5582951492807895
      ],
      [
        0.05025655151173458
      ]
    ]
  ],
  "biases": [
    [
      0.13356810135017694,
      -0.11844622405550634,
      -0.5772053265082431,
      -0.3094465831696324,
      -0.4894062540294351,
      0.0928332416773382,
      -0.021589897977066414,
      0.04365991492400186,
      0.4625557353204736,
      -0.2522269493792065,
      -0.04666800637497544,
      0.22162178126286017,
      -0.2203435453968373,
      -0.44833795521937797,
      -0.21959744546917453,
      -0.3538428252150696
    ],
    [
      0.4013139099000008,
      0.4148679987818183,
      0.4551282896942492,
      -0.07761951157386102,
      -0.48454338347113257,
      0.4847750836579718,
      -0.03133987888282339,
      0.43029838340015003
    ],
    [
      0.6727420496695723
    ]
  ],
  "training_metrics": {
    "train_mae": 0.013926157357563954,
    "test_mae": 0.012704779751944036,
    "train_mse": 0.0007729149867484854,
    "test_mse": 0.0003854491910403674,
    "train_r2": 0.8599571583746455,
    "test_r2": 0.9263848891272095,
    "num_iterations": 21,
    "num_samples": 3240
  },
  "mlp_neutral": 0.932,
  "version": "v2.2-optionB-canonical",
  "status": "ACTIVE"
}